/* Generated by Edge Impulse
*
* Permission is hereby granted, free of charge, to any person obtaining a copy
* of this software and associated documentation files (the "Software"), to deal
* in the Software without restriction, including without limitation the rights
* to use, copy, modify, merge, publish, distribute, sublicense, and/or sell
* copies of the Software, and to permit persons to whom the Software is
* furnished to do so, subject to the following conditions:
*
* The above copyright notice and this permission notice shall be included in
* all copies or substantial portions of the Software.
*
* THE SOFTWARE IS PROVIDED "AS IS", WITHOUT WARRANTY OF ANY KIND, EXPRESS OR
* IMPLIED, INCLUDING BUT NOT LIMITED TO THE WARRANTIES OF MERCHANTABILITY,
* FITNESS FOR A PARTICULAR PURPOSE AND NONINFRINGEMENT. IN NO EVENT SHALL THE
* AUTHORS OR COPYRIGHT HOLDERS BE LIABLE FOR ANY CLAIM, DAMAGES OR OTHER
* LIABILITY, WHETHER IN AN ACTION OF CONTRACT, TORT OR OTHERWISE, ARISING FROM,
* OUT OF OR IN CONNECTION WITH THE SOFTWARE OR THE USE OR OTHER DEALINGS IN THE
* SOFTWARE.
*/
// Generated on: 29.07.2021 21:44:55

#include <stdio.h>
#include <stdlib.h>
#include <vector>
#include "edge-impulse-sdk/tensorflow/lite/c/builtin_op_data.h"
#include "edge-impulse-sdk/tensorflow/lite/c/common.h"
#include "edge-impulse-sdk/tensorflow/lite/micro/micro_mutable_op_resolver.h"
#include "edge-impulse-sdk/porting/ei_classifier_porting.h"

#if EI_CLASSIFIER_PRINT_STATE
#if defined(__cplusplus) && EI_C_LINKAGE == 1
extern "C" {
    extern void ei_printf(const char *format, ...);
}
#else
extern void ei_printf(const char *format, ...);
#endif
#endif

#if defined __GNUC__
#define ALIGN(X) __attribute__((aligned(X)))
#elif defined _MSC_VER
#define ALIGN(X) __declspec(align(X))
#elif defined __TASKING__
#define ALIGN(X) __align(X)
#endif

using namespace tflite;
using namespace tflite::ops;
using namespace tflite::ops::micro;

namespace {

constexpr int kTensorArenaSize = 656;

#if defined(EI_CLASSIFIER_ALLOCATION_STATIC)
uint8_t tensor_arena[kTensorArenaSize] ALIGN(16);
#elif defined(EI_CLASSIFIER_ALLOCATION_STATIC_HIMAX)
#pragma Bss(".tensor_arena")
uint8_t tensor_arena[kTensorArenaSize] ALIGN(16);
#pragma Bss()
#elif defined(EI_CLASSIFIER_ALLOCATION_STATIC_HIMAX_GNU)
uint8_t tensor_arena[kTensorArenaSize] ALIGN(16) __attribute__((section(".tensor_arena")));
#else
#define EI_CLASSIFIER_ALLOCATION_HEAP 1
uint8_t* tensor_arena = NULL;
#endif

static uint8_t* tensor_boundary;
static uint8_t* current_location;

template <int SZ, class T> struct TfArray {
  int sz; T elem[SZ];
};
enum used_operators_e {
  OP_FULLY_CONNECTED, OP_SOFTMAX,  OP_LAST
};
struct TensorInfo_t { // subset of TfLiteTensor used for initialization from constant memory
  TfLiteAllocationType allocation_type;
  void* data;
  TfLiteIntArray* dims;
  size_t bytes;
};
struct NodeInfo_t { // subset of TfLiteNode used for initialization from constant memory
  struct TfLiteIntArray* inputs;
  struct TfLiteIntArray* outputs;
  void* builtin_data;
  used_operators_e used_op_index;
};

TfLiteContext ctx{};
TfLiteTensor tflTensors[11];
TfLiteEvalTensor tflEvalTensors[11];
TfLiteRegistration registrations[OP_LAST];
TfLiteNode tflNodes[4];

const TfArray<2, int> tensor_dimension0 = { 2, { 1,53 } };
const ALIGN(8) float tensor_data1[64] = { -0.042044173926115036, -0.23477986454963684, -0.063210621476173401, -0.05182594433426857, -0.048306684941053391, 0.010230374522507191, 0, -0.017719617113471031, 0.023598164319992065, -0.074969023466110229, 0, 0.37155857682228088, 0, -0.3353373110294342, -0.014282974414527416, 0, -0.027206223458051682, -0.031321380287408829, 0.14731475710868835, 0, -0.026883656159043312, -0.055444169789552689, -0.0012714704498648643, -0.028609909117221832, -0.0090883104130625725, -0.033073510974645615, -0.041017554700374603, 0.14415585994720459, -0.045192617923021317, -0.052082404494285583, -0.03574555367231369, 0.014704102650284767, 0, -0.037070032209157944, -0.025966541841626167, -0.078545309603214264, -0.050452280789613724, -0.030126869678497314, -0.030315510928630829, -0.067229881882667542, -0.078074328601360321, 0.21600767970085144, -0.057158425450325012, 0.070426136255264282, -0.03863341361284256, -0.063940331339836121, 0.068038217723369598, -0.050310403108596802, -0.047713078558444977, -0.03094850666821003, 0, -0.073198139667510986, -0.37015116214752197, -0.041553881019353867, -0.031160593032836914, -0.05200083926320076, -0.070769950747489929, 0, -0.061046358197927475, -0.054693128913640976, 0.042525138705968857, -0.049325037747621536, -0.11291582882404327, -0.040338363498449326, };
const TfArray<1, int> tensor_dimension1 = { 1, { 64 } };
const ALIGN(8) float tensor_data2[8] = { -0.15324287116527557, 0.25302916765213013, -0.39652565121650696, -0.019039861857891083, -0.084739595651626587, -0.069818824529647827, -0.049576789140701294, -0.13892738521099091, };
const TfArray<1, int> tensor_dimension2 = { 1, { 8 } };
const ALIGN(8) float tensor_data3[7] = { -2.0357601642608643, -0.22845850884914398, -1.5601783990859985, 6.0203380584716797, -0.29275166988372803, -6.5597038269042969, -4.7598099708557129, };
const TfArray<1, int> tensor_dimension3 = { 1, { 7 } };
const ALIGN(8) float tensor_data4[64*53] = { 
  -0.20933704078197479, 0.098346322774887085, -0.11546100676059723, 0.16520288586616516, -0.16566374897956848, 0.18445798754692078, -0.0013453467981889844, -0.077413879334926605, -0.059338066726922989, 0.18406219780445099, -0.022403158247470856, -0.12794645130634308, -0.24321450293064117, 0.0128160510212183, 0.050156891345977783, -0.15177018940448761, -0.24245864152908325, -0.1077895388007164, -0.02938765287399292, -0.16279605031013489, -0.13395929336547852, -0.1447964608669281, 0.085671856999397278, -0.021770000457763672, 0.18051312863826752, 0.14186394214630127, -0.17152890563011169, 0.10347288846969604, -0.10170340538024902, 0.19518862664699554, 0.011581826955080032, -0.064995661377906799, 0.027310162782669067, 0.17744971811771393, 0.0030255273450165987, -0.14580827951431274, -0.019993728026747704, 0.022057589143514633, -0.11790750175714493, -0.058302752673625946, 0.13458827137947083, -0.026432517915964127, 0.013113929890096188, 0.043348383158445358, 0.0030343895778059959, -0.041168801486492157, 0.16144512593746185, 0.1776779443025589, 0.091026201844215393, -0.046213641762733459, 0.0050600245594978333, -0.12565861642360687, -0.059876766055822372, 
  0.025358544662594795, -0.27182415127754211, -0.026927933096885681, 0.097227491438388824, 0.19029591977596283, -0.0032936877105385065, 0.27936753630638123, 0.0078725703060626984, 0.31872692704200745, 0.020988844335079193, -0.11087843030691147, 0.017137873917818069, -0.15096850693225861, 0.040566902607679367, 0.023868674412369728, 0.0016937856562435627, -0.17081201076507568, 0.0074219703674316406, 0.098586201667785645, -0.00095887522911652923, -0.10852745920419693, 0.089747801423072815, 0.023573800921440125, 0.080575987696647644, -0.1869359165430069, 0.16278292238712311, -0.1583135724067688, -0.1762031763792038, 0.011824923567473888, -0.021734390407800674, 0.0071811191737651825, 0.34206041693687439, 0.10349288582801819, -0.48066723346710205, -0.019008079543709755, -0.56025445461273193, -0.11540862917900085, -0.67142564058303833, 0.016118628904223442, 0.61483269929885864, 0.037669170647859573, 0.71103745698928833, -0.026049965992569923, 0.46867060661315918, 0.058160163462162018, 0.18056316673755646, -0.14270186424255371, 0.11087654531002045, -0.20175665616989136, 0.00034311413764953613, -2.5235838890075684, -1.4843246936798096, 0.87441170215606689, 
  -0.070491552352905273, -0.14811286330223083, 0.0030015851370990276, -0.14948441088199615, 0.10329972207546234, -0.22123600542545319, -0.14554034173488617, 0.071251817047595978, -0.056256420910358429, -0.033048126846551895, -0.25723284482955933, -0.15469984710216522, -0.20672124624252319, -0.23478597402572632, 0.14992532134056091, 0.14872065186500549, -0.037463761866092682, 0.071198008954524994, -0.041471380740404129, -0.038799304515123367, 0.038285072892904282, -0.061599776148796082, -0.092487365007400513, 0.0069789588451385498, -0.12738910317420959, 0.0001804239145712927, -0.064182735979557037, 0.066195644438266754, -0.18876975774765015, -0.00086521619232371449, 0.057893171906471252, 0.14019244909286499, -0.067818582057952881, -0.22306852042675018, 0.0036774375475943089, -0.0034411696251481771, 0.04156157374382019, 0.10201884806156158, -0.12422994524240494, 0.17759132385253906, -0.23424071073532104, -0.19872894883155823, 0.042904626578092575, 0.014903967268764973, 0.043811090290546417, 0.13742507994174957, 0.067556723952293396, 0.097706690430641174, 0.070636913180351257, -0.18551972508430481, -0.020675461739301682, -0.035310756415128708, -0.15614788234233856, 
  -0.2786005437374115, -0.10752973705530167, -0.0027720334473997355, 0.11953375488519669, -0.046587087213993073, -0.11525539308786392, -0.12908735871315002, -0.060869038105010986, -0.13146229088306427, -0.24177496135234833, -0.077515684068202972, -0.014750760979950428, 0.11256507039070129, -0.18101869523525238, -0.19331775605678558, 0.04569585993885994, 0.017265791073441505, 0.15259177982807159, -0.13673985004425049, -0.01085498183965683, -0.16281870007514954, -0.15323667228221893, -0.15264520049095154, -0.11338924616575241, 0.11795608699321747, 0.13707819581031799, -0.083575069904327393, 0.16991519927978516, 0.1052214577794075, 0.15787169337272644, -0.22360379993915558, 0.13602906465530396, 0.017573928460478783, 0.24738672375679016, -0.095203720033168793, -0.043470025062561035, -0.047276701778173447, -0.16764672100543976, 0.12389299273490906, 0.10202004760503769, -0.26264384388923645, -0.20783179998397827, -0.088532589375972748, -0.049875568598508835, -0.21913805603981018, -0.13200847804546356, -0.19570456445217133, 0.082383885979652405, -0.12615378201007843, -0.17916335165500641, 0.083740308880805969, -0.024439532309770584, -0.11586902290582657, 
  -0.059157636016607285, -0.27483856678009033, -0.0016600158996880054, 0.021402472630143166, 0.079209387302398682, -0.18551285564899445, -0.077697671949863434, 0.12772107124328613, 0.041763953864574432, -0.16148722171783447, -0.10869327187538147, 0.0092149442061781883, -0.20423638820648193, 0.1401982456445694, -0.00017517911328468472, 0.052629362791776657, -0.23422802984714508, 0.096104636788368225, -0.101448655128479, -0.14253443479537964, 0.1462055891752243, 0.031448289752006531, -0.21389970183372498, -0.035373836755752563, 0.16496194899082184, -0.27585577964782715, -0.099617980420589447, -0.35110166668891907, -0.11003962159156799, -0.12304984033107758, -0.171002596616745, -0.40256080031394958, -0.078476555645465851, -0.24462556838989258, 0.017664389684796333, -0.32899725437164307, -0.16222564876079559, -0.015661364421248436, -0.16873514652252197, -0.36312621831893921, -0.093606665730476379, -0.37428015470504761, 0.085576474666595459, -0.20292237401008606, -0.18002162873744965, -0.23111133277416229, 0.18685875833034515, 0.19254069030284882, -0.13391572237014771, 0.047396376729011536, -0.15580388903617859, -0.14135213196277618, -0.17005674540996552, 
  0.096914201974868774, 0.12009794265031815, 0.094117984175682068, -0.10904815793037415, -0.15905125439167023, 0.063137270510196686, -0.25002539157867432, 0.0032532457262277603, -0.022464660927653313, -0.064479030668735504, -0.13150772452354431, 0.043874893337488174, 0.1220288872718811, 0.037651840597391129, -0.14774248003959656, 0.0033704591915011406, 0.31897518038749695, 0.034773238003253937, 0.044189140200614929, -0.060807004570960999, 0.11779630184173584, -0.12495868653059006, 0.17600060999393463, -0.19822752475738525, -0.19744746387004852, -0.22561673820018768, 0.11643169820308685, 0.20290003716945648, -0.076063878834247589, -0.45865020155906677, 0.12767425179481506, -0.57139581441879272, 0.029661267995834351, 0.72661823034286499, -0.01852077804505825, 0.71099472045898438, 0.02082533948123455, -0.077824831008911133, -0.091726936399936676, -0.78832465410232544, 0.028512312099337578, -0.035939689725637436, -0.065250545740127563, 0.093184657394886017, 0.023210326209664345, 0.075979314744472504, 0.037241503596305847, 0.044625714421272278, -0.094454318284988403, -0.012019515037536621, -0.14484010636806488, -0.0061225304380059242, 0.38454094529151917, 
  -0.16742442548274994, -0.16806945204734802, 0.11400230228900909, -0.056051477789878845, -0.048917189240455627, -0.046618416905403137, -0.023689821362495422, -0.1289057731628418, -0.18791617453098297, -0.13445946574211121, -0.14036917686462402, 0.082836940884590149, -0.16359034180641174, -0.22040975093841553, 0.024149671196937561, 0.1187804788351059, -0.10713279992341995, -0.037515655159950256, 0.088527873158454895, -0.21477468311786652, -0.092769041657447815, -0.058453544974327087, 0.15878637135028839, -0.18388265371322632, -0.056128844618797302, 0.10566921532154083, -0.18373250961303711, -0.049015939235687256, 0.042143836617469788, -0.070575535297393799, 0.14165680110454559, 0.1786203533411026, -0.22614717483520508, 0.10339449346065521, -0.15448230504989624, 0.12061245739459991, -0.089708283543586731, -0.090925887227058411, -0.058420613408088684, -0.094037562608718872, -0.058360621333122253, -0.11541310697793961, 0.098498806357383728, -0.023278236389160156, -0.075877577066421509, 0.18856061995029449, 0.18146704137325287, 0.2154720276594162, -0.015723198652267456, -0.22170169651508331, -0.21198928356170654, 0.1059211939573288, -0.20197299122810364, 
  -0.093691587448120117, -0.059023134410381317, -0.15422423183917999, 0.18389679491519928, 0.080526188015937805, -0.023458469659090042, 0.14388619363307953, 0.036126114428043365, 0.18946622312068939, 0.019118169322609901, -0.21718482673168182, -0.18955063819885254, -0.030575187876820564, -0.11072638630867004, -0.15898217260837555, 0.029604110866785049, -0.04138508066534996, 0.026049787178635597, -0.21725606918334961, -0.1384010910987854, -0.21882529556751251, -0.13134703040122986, 0.18307097256183624, -0.089995086193084717, 0.088563010096549988, 0.14154864847660065, 0.14097386598587036, -0.12008256465196609, 0.10417325794696808, 0.12394591420888901, -0.23888511955738068, -0.18991631269454956, 0.034729637205600739, -0.14202919602394104, -0.19870090484619141, 0.13673381507396698, -0.030977506190538406, 0.15869778394699097, -0.030015258118510246, -0.17353636026382446, -0.10790019482374191, 0.15665887296199799, -0.03947756439447403, -0.035270288586616516, 0.17446242272853851, 0.046580065041780472, 0.08415772020816803, -0.20307070016860962, -0.11986570060253143, -0.16882917284965515, 0.066558778285980225, 0.19726036489009857, 0.12563779950141907, 
  0.080849871039390564, -0.10362434387207031, -0.013747834600508213, 0.12490646541118622, 0.12538613379001617, -0.10580331832170486, -0.16796079277992249, -0.1901535838842392, -0.44885340332984924, -0.045467156916856766, -0.11088436841964722, -0.046979065984487534, -0.2204660177230835, 0.091252662241458893, -0.010032946243882179, 0.023776287212967873, -0.046711176633834839, -0.066085949540138245, 0.030962536111474037, -0.058496385812759399, 0.28307691216468811, 0.18917186558246613, -0.085960909724235535, -0.040507316589355469, 0.055880650877952576, -0.12069891393184662, 0.18526440858840942, -0.0090870223939418793, -0.11099928617477417, 0.098096154630184174, -0.24739527702331543, 0.49948474764823914, -0.37788921594619751, -0.19011685252189636, 0.18424311280250549, -0.68668138980865479, 0.14957351982593536, -0.43655070662498474, 0.026945250108838081, 0.73781049251556396, 0.031438436359167099, 0.2677549421787262, 0.035353291779756546, 0.31000787019729614, 0.046296138316392899, 0.27077624201774597, 0.20224301517009735, 0.097654476761817932, 0.19399358332157135, -0.22440725564956665, -0.39965724945068359, 0.021530009806156158, 0.59166693687438965, 
  -0.088650345802307129, 0.074983119964599609, -0.039342757314443588, 0.037713833153247833, -0.20779494941234589, -0.067689433693885803, 0.073450453579425812, 0.017552122473716736, -0.051518019288778305, 0.0038093503098934889, -0.099581450223922729, 0.065798982977867126, -0.29919862747192383, -0.031462505459785461, 0.016670200973749161, -0.1530587375164032, -0.27557092905044556, 0.13091707229614258, -0.18138746917247772, -0.087823376059532166, 0.062449879944324493, 0.14416404068470001, 0.16565151512622833, 0.11793671548366547, 0.22328121960163116, -0.1097169890999794, -0.11161438375711441, 0.077962711453437805, 0.047149375081062317, 0.0030705127865076065, -0.079602964222431183, 0.21507063508033752, 0.10086698830127716, -0.31092119216918945, -0.06448538601398468, 0.039963513612747192, -0.20387828350067139, 0.35225176811218262, -0.02872849628329277, 0.30795773863792419, -0.080831944942474365, 0.042332299053668976, 0.09836762398481369, -0.017478866502642632, -0.092646792531013489, -0.018291449174284935, 0.12233184278011322, 0.061798259615898132, -0.062325462698936462, -0.17621634900569916, 0.099893130362033844, 0.080294914543628693, -0.35803449153900146, 
  -0.17941035330295563, -0.10650439560413361, -0.0050103813409805298, -0.075134232640266418, -0.15877920389175415, -0.14082011580467224, -0.13063704967498779, -0.067302912473678589, 0.023181766271591187, -0.061494976282119751, -0.20803821086883545, -0.21608613431453705, 0.05028398334980011, -0.0083756446838378906, -0.0078110694885253906, -0.091858312487602234, 0.01172029972076416, 0.084551975131034851, 0.068090423941612244, -0.062345936894416809, -0.16332708299160004, 0.1946588009595871, 0.073892012238502502, -0.076276466250419617, 0.06382162868976593, 0.15716151893138885, 0.10489557683467865, 0.0069168061017990112, -0.070777848362922668, 0.17402441799640656, 0.184401735663414, -0.11755082756280899, -0.068054035305976868, -0.14098876714706421, -0.038554400205612183, -0.15242227911949158, -0.10572341829538345, 0.10175155103206635, 0.1284468024969101, 0.043423637747764587, -0.083591565489768982, -0.071248918771743774, -0.16142281889915466, 0.03046010434627533, -0.12875491380691528, -0.04425165057182312, 0.0045400112867355347, 0.065348014235496521, -0.15423703193664551, 0.088042125105857849, 0.11362557113170624, 0.21706666052341461, 0.054879561066627502, 
  0.23911005258560181, 0.44828721880912781, 0.06262592226266861, -0.073130913078784943, -0.24112069606781006, -0.034535463899374008, -0.27343961596488953, -0.030071839690208435, -0.52527308464050293, 0.048902463167905807, -0.2120586484670639, -0.043722178786993027, 0.18827736377716064, -0.053383514285087585, 0.18711227178573608, -0.015170025639235973, 0.21528792381286621, -0.036356817930936813, 0.2556922435760498, 0.060100540518760681, 0.13494360446929932, -0.19939087331295013, 0.16765411198139191, 0.027064278721809387, 0.013313144445419312, -0.31917434930801392, 0.19614247977733612, -0.15114474296569824, 0.020470637828111649, -0.18971386551856995, 0.0011591576039791107, 1.0588032007217407, 0.031952209770679474, -0.12237099558115005, 0.02348434180021286, 0.27443006634712219, 0.010095035657286644, 0.87144690752029419, 0.087498471140861511, 0.74720484018325806, -0.015215209685266018, -0.086963005363941193, 0.070588111877441406, -0.34008157253265381, -0.023038662970066071, -0.16669361293315887, 0.028486564755439758, 0.16917692124843597, 0.20894260704517365, -0.046974807977676392, -0.18345870077610016, 0.061028569936752319, -0.43384137749671936, 
  0.084442481398582458, 0.037996932864189148, -0.16331806778907776, 0.073857501149177551, -0.086944147944450378, 0.11370812356472015, -0.026905909180641174, -0.16336309909820557, 0.1940867155790329, -0.0034748166799545288, -0.071543872356414795, 0.061597570776939392, -0.021869942545890808, -0.14667685329914093, 0.01262858510017395, -0.035029098391532898, 0.17702086269855499, 0.047667577862739563, 0.094242289662361145, 0.16409797966480255, -0.056122690439224243, 0.076509639620780945, -0.1330762654542923, 0.048167213797569275, 0.12021757662296295, 0.018579229712486267, -0.21271799504756927, 0.071493402123451233, -0.15129208564758301, -0.056308910250663757, -0.21975073218345642, 0.15315718948841095, -0.10817429423332214, -0.17125023901462555, 0.090871736407279968, 0.036766484379768372, -0.13221229612827301, -0.043281003832817078, -0.18407487869262695, -0.15781587362289429, -0.13771873712539673, 0.1341441422700882, -0.0710316002368927, 0.21548916399478912, -0.12899814546108246, 0.10055901110172272, 0.11919097602367401, 0.10266552865505219, 0.13843996822834015, 0.10913176834583282, 0.11201517283916473, -0.19059781730175018, -0.18502306938171387, 
  -0.072978846728801727, -0.52716940641403198, 0.081127502024173737, -0.19809830188751221, -0.61879688501358032, -0.010180780664086342, 0.13872787356376648, -0.024403257295489311, 0.14027842879295349, -0.00088844355195760727, 0.20448791980743408, -0.016654251143336296, -0.1177738755941391, -0.017706746235489845, -0.26377299427986145, -0.0043817330151796341, 0.066181130707263947, -0.0062096375040709972, 0.17815873026847839, 0.011716335080564022, 0.14887085556983948, -0.095620214939117432, 0.1148577481508255, -0.11080425232648849, 0.14850457012653351, 0.15413832664489746, -0.56376266479492188, 0.18349507451057434, 0.0064251427538692951, -0.21106764674186707, 0.038390826433897018, 0.010316614992916584, 0.017151374369859695, -0.20878271758556366, 0.011963745579123497, -0.0032084574922919273, 0.016416024416685104, 0.47101163864135742, 0.024545371532440186, 1.1016684770584106, 0.00053182855481281877, 0.95289832353591919, 0.016917631030082703, 0.76064056158065796, -0.00238080695271492, 0.86092191934585571, -0.02325265109539032, -0.11095645278692245, -0.17594520747661591, 0.2218300849199295, -1.8288822174072266, -1.5035248994827271, -0.0061719343066215515, 
  -0.14806264638900757, 0.17986451089382172, -0.06876198947429657, -0.20142552256584167, 0.17466054856777191, -0.13721664249897003, -0.051022958010435104, 0.029046641662716866, -0.12512677907943726, -0.20296351611614227, 0.14641979336738586, 0.12751218676567078, -0.1549316942691803, -0.21063362061977386, 0.12982177734375, 0.14095041155815125, -0.20284180343151093, 0.098392859101295471, 0.0012590652331709862, 0.023810051381587982, -0.22556748986244202, 0.19877190887928009, 0.097012415528297424, -0.086567133665084839, -0.19216176867485046, 0.088313862681388855, -0.2184893935918808, 0.10064047574996948, -0.10204833745956421, -0.030306329950690269, -0.22752507030963898, 0.029044918715953827, -0.065006405115127563, 0.079440057277679443, 0.097912885248661041, 0.032429937273263931, 0.093440085649490356, -0.20936574041843414, 3.3979162253672257e-05, 0.084380976855754852, -0.14511626958847046, -0.22560650110244751, -0.038985658437013626, 0.029369466006755829, -0.12545578181743622, 0.012457248754799366, 0.1203056126832962, -0.21460838615894318, 0.063269838690757751, -0.14755421876907349, 0.18030247092247009, 0.077591300010681152, -0.16792799532413483, 
  -0.13788239657878876, 0.10591189563274384, 0.034439578652381897, 0.14093245565891266, -0.15153633058071136, -0.018139690160751343, -0.032199040055274963, -0.018553957343101501, 0.15564067661762238, 0.13631264865398407, -0.1965499073266983, 0.029641523957252502, 0.010307073593139648, 0.1410117894411087, -0.024730503559112549, -0.080718964338302612, 0.15716265141963959, -0.1302732527256012, -0.072333976626396179, -0.031107991933822632, -0.015516906976699829, 0.15409158170223236, -0.079375997185707092, 0.078834459185600281, 0.082982912659645081, 0.043233111500740051, 0.042839899659156799, -0.11492502689361572, -0.20179304480552673, -0.14773848652839661, -0.20395070314407349, 0.19969587028026581, 0.093770191073417664, -0.024338304996490479, -0.042075216770172119, -0.22453418374061584, -0.2241036593914032, 0.01036408543586731, -0.20964838564395905, 0.059043183922767639, -0.15652543306350708, 0.19434176385402679, -0.080304473638534546, 0.1746646910905838, -0.22107048332691193, -0.076154172420501709, 0.22308976948261261, 0.088727578520774841, -0.08648073673248291, 0.11944063007831573, -0.21615523099899292, 0.031134173274040222, 0.013586819171905518, 
  -0.20676138997077942, -0.074131250381469727, -0.12602587044239044, -0.25976252555847168, 0.14815014600753784, 0.11641505360603333, 0.1570945680141449, 0.010221872478723526, -0.22776344418525696, -0.13317708671092987, -0.057540807873010635, -0.15128335356712341, -0.14952892065048218, -0.20265686511993408, -0.12581020593643188, 0.16924603283405304, -0.21594612300395966, -0.084464490413665771, 0.10223493725061417, -0.17037425935268402, -0.083189666271209717, -0.0045296400785446167, -0.015596538782119751, -0.15681347250938416, 0.067322686314582825, 0.078573383390903473, -0.053799957036972046, -0.12970763444900513, 0.14542834460735321, 0.019865283742547035, 0.15296578407287598, -0.24447600543498993, 0.17266958951950073, 0.012785536237061024, -0.047622732818126678, -0.15036895871162415, 0.090132169425487518, 0.14567819237709045, 0.1341063529253006, 0.12685881555080414, -0.17008064687252045, -0.086496457457542419, -0.19144690036773682, 0.063555233180522919, -0.25127092003822327, 0.17820018529891968, 0.029665723443031311, 0.035284474492073059, -0.10056321322917938, 0.20360191166400909, 0.13838644325733185, -0.13022312521934509, 0.15163524448871613, 
  -0.13458362221717834, 0.011129255406558514, 0.039860740303993225, -0.029596617445349693, -0.12761165201663971, -0.024619745090603828, -0.050047393888235092, -0.10651762038469315, -0.11196883022785187, -0.13112454116344452, 0.0054317177273333073, -0.10459320247173309, -0.15519800782203674, 0.081195607781410217, -0.013374818488955498, -0.012771991081535816, -0.23815900087356567, 0.10400217026472092, 0.086793556809425354, -0.025068270042538643, 0.15735699236392975, 0.13369093835353851, -0.094449624419212341, 0.09259854257106781, 0.053563341498374939, 0.14315894246101379, -0.12949883937835693, 0.054257329553365707, -0.23339439928531647, -0.052510939538478851, 0.085309065878391266, -0.039423692971467972, 0.080199100077152252, -0.20386484265327454, 0.16171744465827942, 0.1643947958946228, -0.21443693339824677, -0.21355278789997101, -0.15178482234477997, 0.05512656643986702, -0.049340452998876572, -0.17639422416687012, -0.22608053684234619, 0.16652123630046844, -0.20773930847644806, 0.063040971755981445, 0.055544331669807434, 0.15839557349681854, -0.1788431704044342, 0.13753138482570648, 0.062828615307807922, -0.11750748008489609, 0.082092665135860443, 
  -0.17505156993865967, 0.14698165655136108, -0.0768294557929039, 0.087006032466888428, -0.027770290151238441, -0.10682276636362076, 0.14158877730369568, -0.094647563993930817, -0.36800482869148254, 0.040638230741024017, 0.016680950298905373, 0.023502767086029053, -0.11921028047800064, 0.010177590884268284, 0.0020294624846428633, 0.017676860094070435, 0.091228082776069641, 0.0019783300813287497, -0.2003648430109024, 0.022240376099944115, 0.15864734351634979, 0.11706484854221344, 0.11778227984905243, 0.068161860108375549, -0.023421585559844971, -0.036224961280822754, 0.25141537189483643, 0.28469666838645935, 0.11820963025093079, 0.28969475626945496, -0.19380262494087219, 0.031723063439130783, -0.12902511656284332, 0.58942759037017822, 0.0093872938305139542, 0.35619503259658813, 0.065664894878864288, 0.049452196806669235, 0.019722521305084229, -0.91552138328552246, -0.046125408262014389, -0.64167124032974243, 0.063244298100471497, -0.54753643274307251, -0.010176787152886391, -0.41556486487388611, -0.1124505028128624, -0.0060579180717468262, -0.08746020495891571, 0.054950758814811707, 0.91426098346710205, 0.52099037170410156, -0.57345688343048096, 
  -0.064532190561294556, 0.059242740273475647, -0.2080053836107254, -0.048520296812057495, -0.063527360558509827, 0.051589474081993103, -0.22360396385192871, -0.044382467865943909, -0.046893060207366943, 0.020597308874130249, 0.22624142467975616, 0.053455159068107605, 0.076622918248176575, -0.22177690267562866, 0.1310698539018631, -0.1000831127166748, -0.08756023645401001, 0.024644002318382263, -0.20982719957828522, -0.11745483428239822, -0.12337334454059601, -0.2144438773393631, 0.18820999562740326, -0.07561551034450531, -0.093144059181213379, 0.001228034496307373, 0.11670874059200287, -0.18054752051830292, -0.011341601610183716, -0.083910554647445679, 0.065566733479499817, -0.045364081859588623, 0.06576104462146759, -0.13399454951286316, -0.022261053323745728, 0.22245405614376068, -0.020884975790977478, 0.063294515013694763, 0.12894819676876068, -0.018112257122993469, 0.21917049586772919, 0.17467661201953888, -0.13518273830413818, 0.11706604063510895, -0.049640625715255737, 0.085174277424812317, 0.20077623426914215, -0.071862146258354187, 0.030139878392219543, -0.064111396670341492, -0.21939125657081604, 0.19290195405483246, 0.13438548147678375, 
  -0.18909405171871185, 0.037732720375061035, -0.078427210450172424, -0.050193347036838531, -0.23071463406085968, -0.10234453529119492, -6.5759995777625591e-05, -0.15073075890541077, -0.20022936165332794, 0.17901009321212769, 0.16328944265842438, 0.096046693623065948, 0.029725182801485062, 0.0093986848369240761, 0.047805819660425186, -0.00023648169008083642, 0.021417165175080299, -0.033800762146711349, 0.11056489497423172, -0.11255712807178497, -0.080543212592601776, -0.04587322473526001, -0.14914640784263611, -0.18543297052383423, 0.055808678269386292, 0.083439931273460388, 0.123075932264328, 0.065677225589752197, 0.11906255036592484, 0.10342706739902496, 0.032229360193014145, -0.13713335990905762, -0.24721875786781311, 0.042910907417535782, -0.045329120010137558, -0.040397826582193375, 0.096484526991844177, 0.093197263777256012, -0.060997989028692245, -0.018677815794944763, -0.18865105509757996, 0.0061396900564432144, -0.16062122583389282, 0.103103868663311, 0.090241357684135437, 0.20183195173740387, 0.19233755767345428, 0.22091101109981537, 0.10781712830066681, -0.02779000997543335, -0.10924749076366425, -0.090507335960865021, 0.042138606309890747, 
  -0.011672744527459145, -0.066597610712051392, -0.14734582602977753, 0.15493400394916534, -0.14614078402519226, -0.2590995728969574, -0.20293648540973663, 0.10333529859781265, 0.059132877737283707, 0.05240149050951004, -0.077607259154319763, -0.04207950085401535, 0.080441780388355255, 0.086850725114345551, 0.1062920093536377, -0.16281770169734955, -0.18132457137107849, -0.2061149924993515, -0.32149568200111389, -0.13516533374786377, -0.21994154155254364, 0.039927378296852112, -0.0946178138256073, 0.20359288156032562, -0.075554445385932922, -0.21724881231784821, 0.30450668931007385, -0.18344275653362274, -0.084962762892246246, 0.12741661071777344, 0.13357491791248322, -0.0031415747944265604, -0.17211844027042389, 0.040944729000329971, -0.13971869647502899, -0.075438231229782104, -0.018831012770533562, 0.23609776794910431, -0.1098833903670311, -0.11156105995178223, -0.14742282032966614, -0.1309623122215271, 0.18693128228187561, -0.030636502429842949, -0.19503110647201538, -0.044483572244644165, -0.057080328464508057, -0.12982934713363647, -0.092136964201927185, -0.0069393813610076904, -0.31363096833229065, -0.16207325458526611, -0.17148038744926453, 
  -0.23536482453346252, -0.099456094205379486, -0.022463196888566017, -0.20347532629966736, -0.035372864454984665, -0.067802399396896362, 0.032549086958169937, -0.21659483015537262, -0.17496882379055023, -0.028798606246709824, 0.082139715552330017, 0.035615213215351105, -0.027064641937613487, 0.13964734971523285, 0.16905039548873901, -0.19063675403594971, 0.14651456475257874, -0.15769989788532257, 0.15765805542469025, -0.071994677186012268, -0.16981470584869385, -0.1019858792424202, -0.034660607576370239, -0.067004993557929993, -0.12836390733718872, -0.11066512018442154, 0.095161043107509613, -0.13020680844783783, 0.051244430243968964, -0.11452720314264297, -0.039356403052806854, 0.070449523627758026, 0.11660567671060562, -0.11120104044675827, 0.095065273344516754, -0.088743522763252258, -0.20095022022724152, -0.21770960092544556, -0.076461054384708405, -0.079640425741672516, -0.044389601796865463, -0.05281401053071022, 0.13639871776103973, 0.14929956197738647, -0.10336644202470779, -0.19351154565811157, 0.21065370738506317, -0.10012415051460266, 0.004090532660484314, 0.12577299773693085, 0.044826105237007141, 0.21872599422931671, -0.11077966541051865, 
  -0.093476332724094391, -0.21547462046146393, 0.12351754307746887, -0.16388873755931854, -0.097476795315742493, -0.087368644773960114, -0.10350595414638519, 0.01899571530520916, 0.10025976598262787, -0.25291422009468079, -0.21621626615524292, -0.24738737940788269, -0.12248203158378601, 0.14085553586483002, 0.0035573772620409727, 0.10088933259248734, -0.13343188166618347, -0.14300842583179474, -0.064351379871368408, -0.19656358659267426, 0.031516335904598236, 0.14140786230564117, -0.10982847213745117, -0.091567471623420715, 0.057026401162147522, -0.15420866012573242, -0.12091545760631561, 0.18922707438468933, -0.21357923746109009, -0.21766857802867889, -0.11632823944091797, -0.23156358301639557, -0.20136551558971405, -0.13255737721920013, 0.098675087094306946, -0.032887641340494156, -0.039425618946552277, -0.1405235081911087, 0.12415631860494614, 0.21431073546409607, -0.13777396082878113, -0.20562085509300232, 0.1441769003868103, 0.14464044570922852, -0.0029561389237642288, 0.16676057875156403, 0.086869582533836365, -0.22252662479877472, -0.14073383808135986, 0.14975170791149139, 0.15337054431438446, -0.17723372578620911, -0.21247366070747375, 
  0.11629270762205124, 0.12965679168701172, -0.106968954205513, -0.0014404751127585769, 0.081929139792919159, -0.10869937390089035, -0.037755273282527924, -0.046517949551343918, -0.058664202690124512, -0.150766521692276, 0.11402540653944016, -0.043892350047826767, 0.19435028731822968, -0.13673208653926849, -0.062668174505233765, 0.063978418707847595, 0.034408103674650192, 0.14128506183624268, 0.0001827295491239056, -0.12446942925453186, -0.027295352891087532, 0.0084374099969863892, -0.17989572882652283, 0.053647264838218689, -0.017705708742141724, 0.10182789713144302, 0.10406670719385147, -0.058223079890012741, -0.21639822423458099, -0.0062228278256952763, 0.076087199151515961, 0.16868747770786285, -0.14440543949604034, -0.21244968473911285, 0.028497735038399696, 0.19294899702072144, 0.11500647664070129, -0.22777818143367767, -0.065960891544818878, 0.16984719038009644, 0.063738152384757996, -0.077951282262802124, -0.17099487781524658, -0.077783271670341492, -0.2304500937461853, 0.045217711478471756, -0.096277713775634766, -0.097889676690101624, -0.22585681080818176, -0.03450581431388855, 0.17044483125209808, 0.0049698725342750549, 0.13789737224578857, 
  -0.16755311191082001, -0.23942656815052032, -0.0856284499168396, -0.01975054107606411, -0.23003236949443817, -0.02593536302447319, 0.12974189221858978, -0.13231857120990753, -0.13417692482471466, 0.036392778158187866, 0.31258270144462585, -0.11182157695293427, -0.15427808463573456, -0.13438685238361359, 0.058249842375516891, -0.087952695786952972, -0.15694475173950195, 0.051450636237859726, 0.055161304771900177, -0.18146121501922607, -0.032807447016239166, 0.16189728677272797, -0.17860604822635651, 0.10661117732524872, 0.12687025964260101, -0.31568682193756104, -0.2089550793170929, -0.46758949756622314, 0.059580352157354355, -0.56222319602966309, 0.1043817549943924, -0.306314617395401, -0.22864519059658051, -0.38885533809661865, -0.15849386155605316, -0.36317908763885498, 0.12435115128755569, -0.43055984377861023, 0.11627040803432465, -0.48843470215797424, 0.1208554282784462, -0.081017293035984039, -0.091727569699287415, -0.057814847677946091, -0.073505781590938568, -0.068460665643215179, 0.0066931247711181641, -0.067452087998390198, -0.12260013818740845, 0.080965325236320496, -0.24619711935520172, -0.45965123176574707, -0.71282303333282471, 
  0.16086572408676147, 0.16971513628959656, 0.09744156152009964, -0.23092366755008698, 0.078222766518592834, 0.065215647220611572, -0.16159017384052277, 0.0405774787068367, 0.1284061074256897, -0.18731571733951569, -0.060179505497217178, -0.11793558299541473, -0.11739266663789749, 0.025983709841966629, 0.11484074592590332, 0.058772042393684387, -0.22178195416927338, -0.14320811629295349, -0.25443217158317566, -0.23727212846279144, -0.23371507227420807, -0.21892368793487549, -0.034776315093040466, 0.19948925077915192, -0.165906623005867, -0.0090416306629776955, -0.19911344349384308, 0.075971260666847229, -0.15901337563991547, 0.17824174463748932, -0.19731819629669189, -0.17865221202373505, -0.11242460459470749, -0.16262683272361755, -0.055628634989261627, 0.079689696431159973, -0.19867663085460663, -0.22708430886268616, -0.1930253803730011, -0.097823381423950195, -0.1307947188615799, -0.1156306266784668, 0.053885851055383682, -0.18597766757011414, -0.016776902601122856, 0.10407677292823792, -0.17353875935077667, -0.20743247866630554, -0.15311342477798462, -0.21484039723873138, 0.11585099250078201, 0.11231157928705215, 0.062691375613212585, 
  0.16027796268463135, 0.16766172647476196, -0.16974495351314545, 0.0069663701578974724, 0.011063533835113049, -0.15014347434043884, 0.031182898208498955, -0.10476160049438477, -0.19625219702720642, -0.0016959481872618198, -0.36634385585784912, 0.019375486299395561, 0.10341436415910721, 0.015386894345283508, 0.15471445024013519, 0.0018164467765018344, 0.25730627775192261, 0.0026342172641307116, 0.084557607769966125, 0.0064595839940011501, 0.061235051602125168, 0.079687997698783875, -0.037976101040840149, -0.19202232360839844, -0.10947180539369583, 0.089189015328884125, -0.056812793016433716, -0.011651786975562572, -0.019347842782735825, 0.2359306663274765, -0.3744494616985321, 0.11707492172718048, 0.1025213822722435, 0.83777624368667603, 0.024544375017285347, 0.27703174948692322, -0.047614369541406631, -0.21910975873470306, 0.084824539721012115, -1.5984431505203247, 0.063406534492969513, -0.94049197435379028, -0.0073661296628415585, -1.1040284633636475, 0.0073980647139251232, -0.90045779943466187, 0.052985653281211853, -0.052392274141311646, -0.20314660668373108, -0.11105892807245255, 1.058906078338623, 0.4063740074634552, -0.57985681295394897, 
  0.044682648032903671, 0.12730048596858978, -0.15223522484302521, -0.15519110858440399, -0.26375213265419006, -0.10887730866670609, -0.26169031858444214, 0.11663102358579636, 0.042411781847476959, -0.049286965280771255, 0.052129510790109634, -0.15848805010318756, 0.04045293852686882, 0.064074814319610596, 0.12612861394882202, 0.1199815422296524, -0.13370054960250854, -0.01245103869587183, -0.059230506420135498, -0.1340334564447403, 0.12769952416419983, 0.19102148711681366, -0.17234231531620026, 0.20721538364887238, -0.018731370568275452, -0.12684357166290283, -0.10449804365634918, -0.22798813879489899, -0.2606453001499176, 0.1347762793302536, -0.21407453715801239, 0.097245283424854279, -0.094228059053421021, -0.27549314498901367, 0.061659783124923706, -0.11678392440080643, -0.0097348121926188469, 0.20537956058979034, 0.13808257877826691, 0.26778998970985413, 0.14480064809322357, -0.055916197597980499, -0.25273534655570984, 0.14577792584896088, -0.026825854554772377, 0.096375167369842529, 0.19112448394298553, 0.003259122371673584, 0.16302056610584259, -0.050526022911071777, -0.19951656460762024, -0.24178010225296021, -0.033178042620420456, 
  -0.0037729020696133375, -0.023077530786395073, 0.10973197221755981, -0.15063349902629852, 0.076251208782196045, 0.077759258449077606, -0.22422210872173309, -0.19256646931171417, 0.11983729898929596, -0.035402685403823853, -0.01549844816327095, 0.063711285591125488, 0.1344415545463562, -0.067306652665138245, -0.16721875965595245, 0.073226340115070343, -0.0053387824445962906, -0.17852391302585602, -0.17295107245445251, 0.091041252017021179, 0.18772846460342407, -0.22550413012504578, 0.15152455866336823, 0.025614604353904724, 0.07933710515499115, -0.61098134517669678, 0.048271171748638153, -0.59376001358032227, -0.090936601161956787, -0.59076863527297974, -0.24461553990840912, -0.5883222222328186, -0.10947836190462112, -0.39857953786849976, -0.030577830970287323, -0.58445233106613159, -0.083499789237976074, -0.2516520619392395, -0.118294857442379, -0.18054133653640747, -0.1908208429813385, -0.13349148631095886, 0.1005093902349472, -0.26416543126106262, -0.1119307279586792, -0.25451496243476868, 0.20777557790279388, 0.15610651671886444, -0.010871872305870056, -0.082052499055862427, -0.40811580419540405, -0.5902256965637207, -0.81015610694885254, 
  -0.22291035950183868, 0.068906202912330627, -0.18967820703983307, -0.091568239033222198, 0.15293736755847931, 0.084440886974334717, 0.0070840069092810154, 0.17431320250034332, -0.15434221923351288, 0.049406867474317551, -0.037127997726202011, 0.016568673774600029, 0.097506769001483917, -0.052575282752513885, 0.11821096390485764, -0.23637361824512482, 0.079599037766456604, -0.18181869387626648, 0.1129748746752739, -0.0059788050130009651, -0.16350668668746948, -0.16338497400283813, -0.11738809943199158, 0.13004712760448456, 0.17719568312168121, 0.16220287978649139, -0.092973455786705017, 0.016341216862201691, 0.0098992018029093742, -0.22595104575157166, -0.062761247158050537, -0.17396320402622223, 0.14179015159606934, 0.12639938294887543, 0.18451480567455292, 0.0037960691843181849, 0.068551741540431976, 0.10280795395374298, 0.14635811746120453, 0.13073404133319855, -0.24060823023319244, -0.11709628254175186, -0.0098999533802270889, 0.056110847741365433, -0.20348209142684937, -0.057264860719442368, 0.15077294409275055, -0.16272291541099548, -0.037585631012916565, -0.19663143157958984, -0.11787979304790497, 0.20161359012126923, 0.02923961728811264, 
  0.14136438071727753, -0.03942393884062767, -0.17398370802402496, -0.14733108878135681, -0.13279120624065399, 0.13130874931812286, 0.047317430377006531, -0.16578952968120575, -0.075634561479091644, -0.20172333717346191, -0.038441214710474014, -0.13503250479698181, -0.060328736901283264, 0.11851654201745987, 0.016030412167310715, -0.033916037529706955, -0.022056035697460175, 0.085251212120056152, -0.24373823404312134, 0.14296215772628784, 0.043569553643465042, -0.20838461816310883, -0.12771002948284149, -0.16108909249305725, 0.18019457161426544, -0.28682783246040344, 0.22187907993793488, -0.023495081812143326, -0.42427411675453186, -0.31855997443199158, 0.087384328246116638, -0.27153438329696655, 0.11755575984716415, -0.31968879699707031, 0.12742359936237335, -0.30673754215240479, -0.21497288346290588, -0.068911515176296234, -0.049233283847570419, -0.26824304461479187, 0.095539778470993042, -0.29546695947647095, -0.10483458638191223, -0.056188855320215225, -0.044074300676584244, -0.019235309213399887, 0.21114496886730194, -0.15217861533164978, -0.050949588418006897, -0.16033878922462463, -0.29646050930023193, -0.1848444938659668, -0.66928714513778687, 
  0.15220560133457184, -0.0092871785163879395, -0.17906680703163147, 0.0077163577079772949, -0.22567048668861389, -0.013311251997947693, -0.10559292137622833, -0.12941813468933105, 0.090863808989524841, -0.078720912337303162, 0.18717612326145172, -0.020653948187828064, 0.15220452845096588, -0.059778377413749695, 0.17502637207508087, 0.092265740036964417, -0.03857123851776123, 0.025746002793312073, 0.062632307410240173, -0.11925430595874786, 0.13896702229976654, 0.010616928339004517, -0.021536275744438171, 0.083684965968132019, 0.18614126741886139, -0.020001247525215149, 0.078337952494621277, -0.036184176802635193, 0.091389581561088562, 0.013958290219306946, 0.12405405938625336, 0.22617124021053314, -0.037414431571960449, -0.07153242826461792, -0.015564575791358948, -0.10917285829782486, -0.19824075698852539, 0.1726272851228714, -0.036392316222190857, -0.1336992084980011, -0.022028177976608276, -0.092713534832000732, -0.080620214343070984, 0.059005126357078552, -0.020214676856994629, -0.018133103847503662, 0.022221207618713379, -0.020436793565750122, -0.12144980579614639, -0.025476545095443726, 0.12768350541591644, -0.039478614926338196, -0.15444478392601013, 
  0.012020783498883247, 0.15723785758018494, -0.22294510900974274, -0.18038490414619446, -0.01614932157099247, -0.16696953773498535, -0.24223051965236664, 0.044237557798624039, -0.13544872403144836, -0.2089138925075531, 0.061957389116287231, 0.14555436372756958, -0.13902834057807922, 0.067021220922470093, 0.12838199734687805, 0.15299852192401886, -0.12359330803155899, -0.25333398580551147, 0.0036674728617072105, 0.15432961285114288, 0.1254487931728363, -0.023658499121665955, -0.058321535587310791, -0.20533730089664459, 0.09411795437335968, -0.11032902449369431, 0.08110162615776062, -0.072668477892875671, -0.019852489233016968, -0.10211634635925293, 0.080101937055587769, 0.084664121270179749, -0.1525968462228775, -0.15601241588592529, -0.17823712527751923, 0.028332527726888657, -0.060228362679481506, 0.11567055433988571, 0.095547229051589966, 0.094518348574638367, -0.13029775023460388, 0.23731106519699097, 0.04907192662358284, 0.071884498000144958, -0.20093818008899689, 0.018700646236538887, -0.033405035734176636, -0.12914186716079712, -0.17757320404052734, 0.03601519763469696, -0.077077418565750122, 0.16953204572200775, 0.12516677379608154, 
  -0.24935351312160492, 0.10835475474596024, -0.16669744253158569, -0.19480720162391663, -0.051206737756729126, -0.12545220553874969, 0.11318629235029221, -0.12409131228923798, 0.0060423882678151131, 0.19382435083389282, 0.11277197301387787, 0.067995011806488037, 0.15096066892147064, -0.14607636630535126, 0.011545607820153236, -0.0047482182271778584, -0.19113507866859436, 0.11361835151910782, 0.0021806349977850914, 0.10812142491340637, -0.014857329428195953, -0.16111798584461212, -0.083058997988700867, -0.12405363470315933, 0.11647520959377289, -0.20812955498695374, -0.24552841484546661, -0.15711890161037445, -0.060506939888000488, 0.04623006284236908, -0.079513765871524811, -0.14216382801532745, 0.092652246356010437, -0.20012235641479492, -0.045212823897600174, 0.049986768513917923, 0.15067587792873383, 0.22440166771411896, -0.035436931997537613, -0.08750549703836441, 0.12829212844371796, -0.086397856473922729, -0.10151375085115433, 0.022874604910612106, -0.080229543149471283, 0.014342740178108215, -0.20753549039363861, -0.14384275674819946, 0.074685618281364441, -0.18306529521942139, -0.11236356198787689, -0.088264472782611847, 0.076461218297481537, 
  0.12528212368488312, -0.040769238024950027, -0.055197533220052719, -0.20974880456924438, -0.21413084864616394, 0.046614494174718857, -0.14993007481098175, -0.10518950968980789, -0.014528787694871426, -0.28170320391654968, 0.044834766536951065, 0.098367609083652496, -0.07357131689786911, -0.22105738520622253, -0.30923214554786682, 0.058844286948442459, -0.15390266478061676, 0.031989656388759613, -0.21296481788158417, 0.043491039425134659, 0.021511223167181015, 0.031189844012260437, -0.0013708323240280151, 0.10641197860240936, -0.12378076463937759, 0.10525370389223099, -0.26179203391075134, 0.07240709662437439, -0.27578040957450867, -0.26031327247619629, -0.18325187265872955, -0.08938656747341156, -0.047540124505758286, 0.088408291339874268, -0.06830327957868576, 0.12257431447505951, -0.16600213944911957, 0.054833892732858658, -0.18905076384544373, -0.019466834142804146, -0.20062460005283356, -0.096155457198619843, 0.097536832094192505, 0.038354087620973587, 0.084717847406864166, 0.021256063133478165, -0.19971853494644165, 0.0579538494348526, 0.0066722333431243896, 0.05025799572467804, 0.064503185451030731, -0.19630883634090424, 0.090224750339984894, 
  0.15455780923366547, -0.031054958701133728, 0.0073316865600645542, 0.17898964881896973, -0.040872830897569656, -0.0018901096191257238, -0.30164033174514771, -0.066418230533599854, -0.010713530704379082, 0.051670540124177933, 0.20392628014087677, 0.097424477338790894, 0.046642564237117767, 0.14432431757450104, -0.0031694704666733742, 0.011340269818902016, 0.0069531034678220749, 0.024427508935332298, -0.10646146535873413, 0.014608681201934814, -0.20998482406139374, -0.16744305193424225, -0.027949392795562744, 0.20433057844638824, -0.11670635640621185, -0.020137578248977661, -0.059901151806116104, -0.36267867684364319, -0.241374671459198, -0.22296176850795746, 0.092798903584480286, -0.42534253001213074, -0.10566981136798859, -0.53687667846679688, 0.0041765281930565834, -0.51769351959228516, -0.026786211878061295, -0.45043468475341797, -0.2385660856962204, -0.20261400938034058, -0.064689688384532928, -0.44729384779930115, -0.1409706324338913, -0.44201141595840454, 0.072011865675449371, -0.39225786924362183, 0.10967676341533661, 0.030493035912513733, 0.1719883531332016, -0.065006941556930542, -0.16963741183280945, -0.14960150420665741, -0.9331892728805542, 
  -0.019001128152012825, 0.17968229949474335, -0.035524401813745499, -0.099791541695594788, -0.021032383665442467, -0.063861668109893799, -0.14823079109191895, -0.1799456924200058, -0.16839839518070221, -0.24607422947883606, 0.019696379080414772, 0.094561867415904999, -0.037448383867740631, 0.099954232573509216, -0.15067684650421143, -0.1889280378818512, -0.13266998529434204, 0.030043059960007668, 0.038532380014657974, 0.18974128365516663, -0.093045920133590698, -0.053457736968994141, -0.1120801717042923, 0.0022355616092681885, -0.074099168181419373, -0.25160613656044006, -0.041443530470132828, -0.18904682993888855, 0.0054010567255318165, 0.074988313019275665, -0.20004649460315704, 0.14857019484043121, 0.11720720678567886, -0.15952107310295105, 0.15827786922454834, 0.010386061854660511, -0.22948378324508667, -0.17946873605251312, -0.21130263805389404, -0.090508326888084412, -0.16454413533210754, -0.048833206295967102, -0.096602536737918854, 0.033924747258424759, -0.091720454394817352, 0.092928804457187653, 0.090546444058418274, -0.15339697897434235, -0.067906588315963745, 0.10378400981426239, 0.009328966960310936, 0.029369369149208069, -0.1799176037311554, 
  -0.077694378793239594, 0.020022384822368622, -0.13494646549224854, 0.16015625, -0.0070883063599467278, -0.067344754934310913, -0.059722594916820526, 0.027367614209651947, 0.095567099750041962, 0.0031281455885618925, -0.0062175476923584938, -0.060733482241630554, 0.14799925684928894, 0.16058230400085449, 0.11200711876153946, -0.011568122543394566, -0.18317057192325592, -0.15570461750030518, 0.17781592905521393, -0.081855744123458862, 0.054827582091093063, 0.20172484219074249, -0.0395335853099823, -0.10577151924371719, -0.060080781579017639, 0.086779408156871796, 0.19641220569610596, 0.16749829053878784, -0.07198941707611084, 0.096243016421794891, 0.18779194355010986, 0.016826990991830826, -0.054075177758932114, 0.1827680915594101, -0.24641206860542297, 0.1688896119594574, -0.1752936989068985, 0.11022012680768967, 0.038399498909711838, -0.25543376803398132, -0.19123972952365875, 0.057243604212999344, -0.16676752269268036, -0.12364676594734192, -0.087213486433029175, -0.19035743176937103, 0.046151384711265564, -0.0030047744512557983, 0.10840381681919098, -0.19159048795700073, 0.15952745079994202, 0.1246446818113327, -0.20839843153953552, 
  0.030863959342241287, -0.0053905998356640339, 0.10754918307065964, 0.11380670219659805, 0.15870565176010132, -0.27444228529930115, -0.1965067982673645, -0.08225686103105545, 0.11051904410123825, -0.25999745726585388, 0.036878980696201324, -0.10473274439573288, -0.041086819022893906, -0.2557714581489563, -0.26807776093482971, -0.29084938764572144, 0.14983481168746948, -0.069012723863124847, 0.051503740251064301, -0.22531516849994659, 0.1361846923828125, 0.081379011273384094, -0.07399652898311615, 0.056792065501213074, -0.15929761528968811, 0.185097336769104, 0.049306951463222504, -0.17753924429416656, 0.050130300223827362, 0.087955377995967865, 0.1403023898601532, -0.159113809466362, -0.062658093869686127, 0.038663234561681747, 0.10834419727325439, 0.20681799948215485, -0.0089656282216310501, 0.016471214592456818, 0.080440133810043335, 0.0004429072723723948, 0.11262473464012146, 0.051504191011190414, 0.082316011190414429, -0.099716700613498688, -0.26673984527587891, -0.15678165853023529, 0.039400592446327209, 0.023827508091926575, -0.0054617971181869507, 0.11384578049182892, 0.0060146567411720753, -0.053744815289974213, -0.016693709418177605, 
  -0.21604679524898529, 0.11744291335344315, 0.010273903608322144, -0.18694622814655304, -0.19167460501194, 0.10749667137861252, -0.11447042226791382, -0.12781117856502533, 0.029318584129214287, -0.070725060999393463, 0.024051539599895477, 0.026399070397019386, 0.11110823601484299, 0.084344342350959778, 0.12761633098125458, 0.061401784420013428, -0.096766382455825806, -0.26872584223747253, 0.12393435090780258, -0.12311968207359314, 0.14062975347042084, -0.21612548828125, 0.099373236298561096, 0.15418826043605804, 0.12178801000118256, 0.0035916795022785664, -0.049345280975103378, 0.070518605411052704, -0.022917443886399269, -0.13597121834754944, 0.0082018673419952393, -0.1300790011882782, -0.16937337815761566, -0.0085828052833676338, 0.063062801957130432, -0.12837684154510498, 0.14489617943763733, -0.20184464752674103, -0.24358288943767548, -0.24772633612155914, 0.13026180863380432, -0.00012988963862881064, 0.041077781468629837, -0.12942051887512207, -0.19253599643707275, -0.082084901630878448, -0.1339569091796875, 0.024984195828437805, -0.058139964938163757, -0.0072829276323318481, -0.23716865479946136, 0.01520806085318327, -0.059413593262434006, 
  -0.067444518208503723, 0.29968670010566711, 0.027739115059375763, 0.11402684450149536, -0.12170175462961197, 0.017278380692005157, -0.1011163741350174, 0.092033982276916504, -0.13720531761646271, 0.028274808079004288, -0.058120205998420715, -0.011477962136268616, 0.29183179140090942, -0.018581073731184006, 0.59145957231521606, -0.0031748916953802109, 0.45855450630187988, -0.0020865744445472956, 0.48536825180053711, 0.016333125531673431, 0.67592424154281616, -0.16377812623977661, -0.11640238016843796, -0.16650009155273438, 0.13980703055858612, -0.21262291073799133, 0.17693302035331726, 0.064245156943798065, 0.37962606549263, 0.10450849682092667, -0.22981666028499603, 0.16551132500171661, -0.20001278817653656, 0.1739199161529541, 0.017622755840420723, 0.64536404609680176, -0.088645227253437042, 0.41105973720550537, -0.0047858087345957756, -0.97173130512237549, 0.014857777394354343, -0.9601670503616333, 0.02653278224170208, -0.88086289167404175, 0.035886425524950027, -0.85271835327148438, -0.10935372859239578, 0.01023651659488678, 0.015073478221893311, -0.08926565945148468, 1.3000116348266602, 0.2238897979259491, -0.64545118808746338, 
  -0.24258314073085785, -0.0011237846920266747, -0.036292556673288345, -0.10337742418050766, -0.19031468033790588, 0.054741490632295609, -0.048434104770421982, -0.14175420999526978, -0.063742689788341522, 0.0035795541480183601, -0.1121814027428627, 0.053902424871921539, -0.080730549991130829, -0.28704580664634705, -0.16680406033992767, 0.11709233373403549, -0.077757343649864197, -0.063028424978256226, 0.16940215229988098, 0.1077110767364502, -0.10969805717468262, -0.029462233185768127, -0.1265280544757843, 0.061790958046913147, 0.12286324799060822, -0.30172556638717651, -0.10394199192523956, -0.031774424016475677, 0.18808729946613312, -0.10254625231027603, -0.027399268001317978, -0.16988354921340942, -0.22617940604686737, -0.33586651086807251, -0.14108851552009583, 0.055251568555831909, -0.34722447395324707, -0.041809264570474625, 0.022562816739082336, -0.32410603761672974, 0.03084774874150753, -0.16084179282188416, -0.09522276371717453, -0.21231387555599213, 0.075399748980998993, -0.3381420373916626, 0.055967643857002258, -0.15438933670520782, -0.1078614667057991, -0.16260279715061188, 0.095643624663352966, -0.17449544370174408, -0.15818394720554352, 
  -0.1767992377281189, 0.27683126926422119, 0.18462610244750977, -0.069829657673835754, 0.19272483885288239, 0.13365805149078369, -0.58254009485244751, 0.0069738398306071758, -0.46793100237846375, -0.16996742784976959, -0.31522321701049805, -0.022705912590026855, -0.41446268558502197, -0.012389943934977055, -0.41219642758369446, 0.033554576337337494, -0.14479322731494904, 0.0057568838819861412, -0.49005222320556641, 0.00094478315440937877, -0.34326952695846558, -0.13193660974502563, 0.0050036907196044922, 0.16948683559894562, -0.062633603811264038, -0.061743825674057007, -0.030907953158020973, 0.012812959030270576, -0.43637478351593018, 0.28369751572608948, 0.24152049422264099, 0.55046355724334717, -0.015146281570196152, -0.44654527306556702, -0.18749099969863892, -0.51047921180725098, 0.056693259626626968, -0.24858124554157257, 0.016543576493859291, 0.14265269041061401, -0.064821422100067139, -0.057349603623151779, -0.0059497933834791183, -0.38859760761260986, 0.015321939252316952, -0.26995691657066345, 0.14738790690898895, -0.17216263711452484, -0.22377824783325195, 0.20842482149600983, -0.84679204225540161, -0.62486433982849121, 1.1363857984542847, 
  -0.17612685263156891, 0.063159771263599396, -0.07334156334400177, -0.22145441174507141, 0.17829835414886475, 0.025799397379159927, -0.10927746444940567, -0.23038600385189056, -0.027425387874245644, -0.22409139573574066, -0.17786684632301331, -0.019305812194943428, -0.1049012616276741, -0.20335863530635834, 0.059768509119749069, 0.049171563237905502, -0.19842325150966644, 0.11779064685106277, -0.13674743473529816, -0.094924673438072205, 0.0014607349876314402, -0.22583337128162384, 0.05942101776599884, -0.20705859363079071, 0.13127715885639191, 0.12690019607543945, -0.052301563322544098, -0.032602686434984207, 0.13961784541606903, -0.074950419366359711, 0.17227406799793243, 0.13043844699859619, -0.10535342991352081, 0.082397349178791046, -0.084170445799827576, -0.11032877117395401, -0.24614548683166504, -0.1116638258099556, 0.13019184768199921, -0.15698766708374023, -0.16692641377449036, 0.065880775451660156, 0.09469546377658844, 0.19433604180812836, 0.068779870867729187, -0.091429926455020905, -0.11067154258489609, -0.010681286454200745, -0.14095795154571533, 0.18675757944583893, -0.060933522880077362, 0.13994477689266205, 0.098696120083332062, 
  -0.10742295533418655, -0.07442069798707962, 0.0026623017620295286, 0.033995851874351501, -0.15634541213512421, 0.088927187025547028, -0.21018774807453156, -0.28586286306381226, 0.15328025817871094, 0.13216495513916016, -0.11300011724233627, 0.10133789479732513, -0.12084352970123291, 0.10504625737667084, -0.065088026225566864, -0.085691586136817932, 0.16220594942569733, -0.028689250349998474, -0.23082803189754486, 0.073120884597301483, 0.092422142624855042, 0.09540201723575592, 0.00095883011817932129, 0.16917984187602997, -0.20221519470214844, -0.01517909113317728, 0.013076484203338623, -0.23496952652931213, -0.24508987367153168, 0.11561829596757889, -0.21002297103404999, -0.037417590618133545, -0.078337013721466064, 0.0071201394312083721, -0.086671322584152222, 0.016064105555415154, -0.11789171397686005, -0.19728830456733704, 0.15673629939556122, 0.14531083405017853, -0.13728077709674835, -0.26762300729751587, -0.14482955634593964, -0.097679443657398224, -0.010327057912945747, -0.10142847895622253, -0.060529828071594238, -0.1803567111492157, -0.19393220543861389, -0.13347402215003967, -0.024455081671476364, -0.25308370590209961, -0.052064791321754456, 
  0.077580153942108154, -0.0077009918168187141, 0.12251042574644089, -0.020876381546258926, -0.47473052144050598, 0.027883639559149742, 0.038173992186784744, 0.027617558836936951, 0.076245903968811035, -0.019576605409383774, 0.34610244631767273, -0.024574948474764824, 0.16256619989871979, -0.026015667244791985, -0.15888597071170807, -0.002025204710662365, -0.1767166405916214, 0.018851364031434059, -0.19369249045848846, 0.0053421794436872005, -0.12545408308506012, -0.11499974876642227, 0.17547090351581573, -0.13737094402313232, -0.053871795535087585, -0.91671270132064819, -0.045140281319618225, -0.96533066034317017, 0.130022794008255, -0.51110309362411499, -0.0046918159350752831, -0.6800883412361145, -0.089341416954994202, -0.71856844425201416, -0.015688231214880943, -0.68748295307159424, 0.076702035963535309, -0.55047839879989624, -0.013837520033121109, -0.6312328577041626, -0.00045245932415127754, -0.62836116552352905, -0.0062938914634287357, -0.23734758794307709, 0.020403280854225159, -0.51151871681213379, 0.11936824023723602, -0.21739569306373596, 0.17946754395961761, 0.061360582709312439, -1.1695035696029663, 0.40089204907417297, -2.3930914402008057, 
  -0.20150774717330933, 0.16736926138401031, -0.082024924457073212, 0.11487230658531189, -0.19668546319007874, -0.065727584064006805, -0.12861008942127228, -0.15444883704185486, 0.17102256417274475, 0.048527918756008148, 0.053488545119762421, 0.033477935940027237, 0.19831596314907074, -0.0012099873274564743, -0.17275308072566986, 0.08466743677854538, 0.22034327685832977, -0.068428173661231995, -0.090169265866279602, 0.069008208811283112, 0.076722905039787292, 0.10650293529033661, 0.057545199990272522, 0.14707936346530914, 0.1283196359872818, -0.33175218105316162, -0.10064199566841125, -0.17587584257125854, 0.0066495588980615139, -0.47614935040473938, -0.16974633932113647, -0.36767467856407166, 0.083258047699928284, -0.29631194472312927, -0.22731712460517883, -0.30810904502868652, 0.13716807961463928, -0.20012751221656799, 0.089424043893814087, -0.063919566571712494, -0.084976620972156525, -0.19486629962921143, -0.030977899208664894, -0.27852070331573486, -0.15065920352935791, -0.33681324124336243, -0.17969565093517303, 0.22245688736438751, -0.21611540019512177, -0.20639319717884064, -0.17001534998416901, -0.17475080490112305, -0.71557384729385376, 
  0.027385029941797256, -0.12663638591766357, -0.082344867289066315, -0.2062610536813736, -0.06071806326508522, 0.093988038599491119, -0.08607763797044754, 0.092136897146701813, -0.13844794034957886, -0.15486815571784973, 0.1025414913892746, -0.081710241734981537, 0.016210496425628662, -0.22884353995323181, 0.12352923303842545, -0.26267629861831665, -0.21555031836032867, -0.23778647184371948, -0.014216190204024315, -0.16857129335403442, -0.25887396931648254, -0.18181464076042175, 0.14698897302150726, 0.1321127861738205, 0.20766846835613251, 0.14086683094501495, 0.052382826805114746, 0.079699121415615082, -0.037313982844352722, -0.02999555692076683, 0.15687517821788788, 0.17724479734897614, 0.027235694229602814, 0.0014196452684700489, 0.079347118735313416, 0.17012794315814972, 0.028329618275165558, 0.037666231393814087, 0.13860392570495605, -0.22812217473983765, -0.15468600392341614, 0.032774120569229126, -0.21129480004310608, 0.14096030592918396, 0.14653205871582031, 0.1130785197019577, 0.19545497000217438, -0.12211200594902039, 0.018798157572746277, -0.022423729300498962, 0.030017459765076637, -0.0088068405166268349, 0.064559489488601685, 
  -0.011084378696978092, -0.086035192012786865, -0.16050872206687927, -0.077293194830417633, 0.010129877366125584, 0.14585940539836884, -0.11051132529973984, 0.17033085227012634, -0.14742687344551086, 0.18481428921222687, -0.058867074549198151, -0.15406937897205353, -0.20168939232826233, -0.21502521634101868, 0.11119142174720764, -0.088614568114280701, -0.074720136821269989, -0.0532882921397686, 0.16621214151382446, -0.015114207752048969, 0.18070578575134277, 0.19467441737651825, -0.21637065708637238, -0.17069445550441742, 0.098727300763130188, -0.12268975377082825, 0.085556343197822571, -0.1418738067150116, -0.21188357472419739, -0.024483773857355118, -0.13369062542915344, -0.043202795088291168, -0.0019257391104474664, -0.10605338960886002, 0.13931557536125183, -0.17354105412960052, -0.24477103352546692, -0.061774805188179016, 0.048590976744890213, -0.15860293805599213, 0.12614293396472931, 0.10462221503257751, -0.148472860455513, 0.04626128077507019, -0.1564461886882782, -0.1063183918595314, -0.047494843602180481, 0.076443448662757874, -0.17674179375171661, -0.1866428554058075, -0.034331921488046646, 0.092080354690551758, -0.061740066856145859, 
  -0.21290993690490723, -0.076703920960426331, -0.060687482357025146, -0.16499671339988708, 0.053606972098350525, -0.069493234157562256, 0.093048825860023499, -0.1430765688419342, -0.035921946167945862, -0.065332397818565369, 0.19575892388820648, 0.019686371088027954, -0.077820673584938049, -0.05350087583065033, 0.19154681265354156, 0.20264811813831329, 0.10813908278942108, 0.030249252915382385, 0.078756228089332581, -0.072568997740745544, 0.18293483555316925, -0.20325124263763428, -0.01298503577709198, -0.15525880455970764, 0.048190727829933167, -0.12085406482219696, 0.13382036983966827, -0.1079307347536087, -0.21403267979621887, 0.03664495050907135, 0.1802821010351181, -0.11115071922540665, -0.12787416577339172, -0.031655505299568176, 0.099263384938240051, -0.1827968955039978, 0.027755036950111389, 0.06701304018497467, -0.18413534760475159, -0.073939681053161621, -0.098936080932617188, 0.025048241019248962, -0.12277399003505707, -0.025288492441177368, -0.19322426617145538, -0.045835539698600769, 0.04146258533000946, 0.033421739935874939, 0.050722643733024597, 0.21893469989299774, -0.010471269488334656, -0.18186154961585999, -0.002928808331489563, 
  -0.040662277489900589, 0.12157613039016724, 0.16536030173301697, -0.06572723388671875, 0.14574974775314331, 0.0066564730368554592, -0.26540675759315491, 0.037487756460905075, -0.17145267128944397, 0.019174486398696899, 0.016478998586535454, 0.0032771960832178593, -0.39124104380607605, -0.022195000201463699, -0.039070006459951401, -0.0043956818990409374, -0.091163612902164459, 0.012903318740427494, -0.31062471866607666, -0.017164817079901695, 0.10696328431367874, -0.064804419875144958, 0.020393162965774536, -0.1897544264793396, 0.1732991486787796, 0.067900583148002625, -0.42962774634361267, -0.33602771162986755, -0.32699969410896301, 0.29128006100654602, -0.29357782006263733, 0.81163901090621948, -0.1058187410235405, 0.0043545886874198914, 0.078243084251880646, -0.47931039333343506, 0.071028672158718109, -0.46277663111686707, 0.039923690259456635, 0.57961392402648926, 0.052186764776706696, 0.52819252014160156, 0.01967943087220192, 0.36145085096359253, 0.011658396571874619, 0.097551591694355011, -0.18996109068393707, -0.21353590488433838, -0.017813310027122498, 0.055538132786750793, -1.7168145179748535, -1.8260029554367065, 0.75291210412979126, 
  0.016865544021129608, -0.37149462103843689, 0.0081362202763557434, -0.00027460863930173218, 0.12811040878295898, -0.030472885817289352, 0.13610155880451202, -0.005728850606828928, 0.69178920984268188, 0.10997817665338516, -0.22010871767997742, -0.090917475521564484, 0.04325360432267189, -0.10815631598234177, -0.010796009562909603, -0.03241058811545372, -0.11571557074785233, -0.073076985776424408, -0.35875049233436584, 0.12293406575918198, -0.0032559598330408335, 0.21858607232570648, 0.01851789653301239, 0.071708157658576965, -0.033210247755050659, 0.25387537479400635, -0.32239079475402832, 0.22102166712284088, -0.0091022578999400139, -0.052761230617761612, -0.096250869333744049, -0.88303524255752563, 0.016520019620656967, 0.26600638031959534, 0.016875652596354485, -0.34825938940048218, -0.015498965978622437, -0.60842156410217285, 0.16101519763469696, -0.54400938749313354, -0.031338412314653397, 0.36675602197647095, 0.15091611444950104, 0.36719521880149841, -0.03274381160736084, 0.0061530927196145058, 0.029090866446495056, 0.098855569958686829, -0.045461490750312805, -0.13855831325054169, -0.83234715461730957, -0.22413969039916992, 0.9341580867767334, 
  -0.10440340638160706, -0.1325201541185379, 0.10513482987880707, 0.16105979681015015, -0.14339560270309448, -0.11420135945081711, -0.074547752737998962, -0.2122674286365509, 0.13424313068389893, -0.028424084186553955, 0.24526715278625488, -0.045370828360319138, 0.081053353846073151, 0.011921670287847519, -0.044617250561714172, -0.12417811155319214, 0.16996955871582031, 0.19630065560340881, -0.088567167520523071, -0.2069704532623291, 0.048084713518619537, 0.046525433659553528, -0.12277603894472122, 0.054575368762016296, -0.14230330288410187, -0.023715736344456673, -0.020406559109687805, -0.36619234085083008, -0.33761271834373474, -0.18840396404266357, 0.10989660024642944, 0.1803932785987854, 0.1672564297914505, -0.31614714860916138, 0.1254798024892807, -0.035652719438076019, -0.025388853624463081, -0.075252637267112732, -0.12331567704677582, -0.031588800251483917, -0.035312928259372711, 0.11821915954351425, 0.10496409982442856, -0.092499494552612305, -0.036426950246095657, -0.22069326043128967, 0.099959805607795715, 0.17548270523548126, 0.034225925803184509, 0.20770736038684845, -0.3433508574962616, -0.21854901313781738, -0.37985712289810181, 
  0.18038095533847809, 0.043537575751543045, -0.019533324986696243, -0.26558291912078857, -0.20554836094379425, -0.1374795138835907, -0.23831120133399963, 0.16101709008216858, 0.0078572416678071022, -0.066481508314609528, 0.13353033363819122, -0.057140473276376724, -0.08435484766960144, -0.081686221063137054, 0.096847563982009888, -0.19764284789562225, -0.13448081910610199, 0.016445033252239227, 0.056265823543071747, -0.24001462757587433, 0.1015903651714325, 0.12662605941295624, 0.21469138562679291, 0.053364619612693787, 0.14400212466716766, -0.098996296525001526, -0.15305428206920624, 0.095067121088504791, -0.05756821483373642, -0.13422876596450806, -0.056519493460655212, -0.12742653489112854, 0.12886179983615875, -0.17829562723636627, 0.044207222759723663, -0.079768821597099304, 0.14478227496147156, 0.17089241743087769, -0.18065819144248962, -0.089967086911201477, -0.18199701607227325, -0.07114112377166748, -0.10905042290687561, 0.11649124324321747, -0.20471015572547913, -0.072826288640499115, 0.033003821969032288, -0.054485782980918884, -0.058082625269889832, 0.13214303553104401, -0.084299542009830475, -0.13597361743450165, 0.093815669417381287, 
  -0.13472571969032288, -0.071037642657756805, 0.12593190371990204, -0.22578571736812592, 0.010132360272109509, 0.070557057857513428, 0.048593375831842422, 0.0894307941198349, 0.033864706754684448, 0.018288290128111839, 0.12630017101764679, -0.17967036366462708, -0.082975141704082489, -0.17679125070571899, -0.066596284508705139, -0.098904654383659363, -0.14220428466796875, -0.071662046015262604, -0.12602438032627106, -0.050858378410339355, -0.20591564476490021, -0.13192252814769745, -0.1356121301651001, 0.032742097973823547, -0.044959098100662231, -0.020089402794837952, 0.20415478944778442, -0.22865457832813263, -0.29928764700889587, -0.33104053139686584, -0.14742951095104218, -0.0773506760597229, 0.0040838597342371941, -0.024267500266432762, -0.087397351861000061, 0.089891262352466583, 0.13534499704837799, -0.32611337304115295, -0.21540588140487671, -0.33155128359794617, -0.17539580166339874, 0.012367379851639271, -0.021498028188943863, -0.27648407220840454, -0.069178648293018341, -0.16782382130622864, 0.15598417818546295, -0.072519809007644653, 0.042466476559638977, 0.1487165242433548, -0.3047594428062439, -0.27928224205970764, -0.14586830139160156, 
  0.062244482338428497, -0.26039314270019531, -0.0026987895835191011, -0.05446464940905571, -0.28387540578842163, -0.24249060451984406, 0.13939110934734344, -0.17174994945526123, 0.10650021582841873, -0.13966381549835205, -0.020056843757629395, -0.0018428337061777711, -0.25181925296783447, -0.12847280502319336, -0.15999147295951843, 0.12750579416751862, -0.033349595963954926, -0.23876602947711945, -0.10048553347587585, -0.090824984014034271, -0.096870124340057373, 0.1909172385931015, 0.046478256583213806, 0.094962224364280701, 0.08978937566280365, 0.039791427552700043, -0.14773280918598175, 0.1485619843006134, -0.26536470651626587, 0.13993677496910095, 0.15195474028587341, 0.083387695252895355, -0.01282118447124958, -0.052523266524076462, 0.035151749849319458, 0.003825825173407793, -0.13769063353538513, -0.089209616184234619, 0.061229933053255081, -0.25706711411476135, 0.12362591177225113, 0.07835659384727478, -0.27906239032745361, 0.010600628331303596, 0.05987226590514183, -0.13778284192085266, 0.14296026527881622, -0.048900827765464783, -0.15533584356307983, 0.1592988520860672, 0.13802602887153625, 0.062547564506530762, -0.20293688774108887, 
  -0.21241872012615204, 0.14259372651576996, -0.18674463033676147, -0.10729509592056274, 0.047633722424507141, -0.11808199435472488, -0.1774880588054657, 0.10271205008029938, 0.19475723803043365, 0.22638554871082306, -0.2003634124994278, 0.15606002509593964, 0.05766160786151886, 0.064198538661003113, -0.01549212634563446, -0.092529594898223877, 0.20287428796291351, -0.086447104811668396, -0.12694501876831055, -0.03279133141040802, -0.079554378986358643, -0.22502939403057098, -0.20670796930789948, 0.14548273384571075, 0.22505666315555573, -0.096063524484634399, -0.17991539835929871, -0.062324553728103638, 0.12771110236644745, -0.021838024258613586, 0.12925656139850616, -0.13105256855487823, -0.12568822503089905, -0.17274130880832672, -0.18181842565536499, 0.11366994678974152, -0.18088404834270477, -0.048268646001815796, 0.079279497265815735, 0.012495562434196472, -0.1010928601026535, -0.061979442834854126, 0.058771386742591858, 0.074550047516822815, -0.15859729051589966, 0.093999072909355164, 0.077178552746772766, 0.16153489053249359, -0.17421111464500427, -0.035885065793991089, 0.081678673624992371, 0.17022641003131866, -0.17941883206367493, 
  0.11644322425127029, -0.27691856026649475, 0.056395705789327621, -0.021486194804310799, -0.087364695966243744, -0.24269971251487732, -0.17028376460075378, -0.055612094700336456, 0.012139644473791122, -0.057545658200979233, 0.024422982707619667, -0.17658096551895142, -0.055421989411115646, 0.0075646317563951015, -0.27488890290260315, -0.036527328193187714, 0.086113981902599335, 0.036222197115421295, -0.17989365756511688, -0.12179131805896759, -0.22269269824028015, 0.16205279529094696, 0.097155287861824036, -0.17946143448352814, -0.01154056191444397, -0.10927305370569229, -0.081259466707706451, 0.0081961611285805702, -0.0089005231857299805, -0.023972310125827789, -0.099250294268131256, 0.12709605693817139, -0.21048569679260254, 0.194639652967453, 0.034900695085525513, 0.034301925450563431, -0.20521514117717743, -0.075605541467666626, 0.015559304505586624, -0.24118348956108093, 0.13868685066699982, 0.080410592257976532, -0.23891223967075348, 0.073490098118782043, 0.045137200504541397, 0.025435024872422218, 0.15422655642032623, -0.052503347396850586, -0.15437394380569458, 0.11441011726856232, -0.21609543263912201, -0.20137013494968414, 0.12331001460552216, 
  0.090143896639347076, -0.21890254318714142, -0.23891787230968475, -0.035822734236717224, -0.2433934211730957, -0.011329539120197296, 0.15959465503692627, -0.24840027093887329, -0.19230316579341888, -0.24808831512928009, 0.027677241712808609, -0.22787655889987946, -0.25640743970870972, -0.23939177393913269, 0.14255797863006592, 0.11259519308805466, -0.27777799963951111, 0.13705512881278992, -0.12999008595943451, -0.13968990743160248, 0.13617239892482758, 0.10479380190372467, 0.21492867171764374, -0.14544737339019775, 0.2203756719827652, -0.12605457007884979, 0.20374217629432678, 0.12483523786067963, -0.0027637926395982504, -0.091608412563800812, 0.14547096192836761, -0.26854521036148071, 0.035578154027462006, 0.033241573721170425, 0.056296985596418381, -0.038973152637481689, -0.022955816239118576, 0.098560608923435211, 0.12531578540802002, -0.13423015177249908, -0.2652604877948761, -0.26918172836303711, -0.13414272665977478, 0.061474058777093887, -0.0033220578916370869, -0.15285208821296692, 0.1369926780462265, 0.097315415740013123, 0.069784298539161682, -0.097666963934898376, 0.17506776750087738, -0.0017844145186245441, -0.22870692610740662, 
  -0.054722055792808533, -0.12888108193874359, -0.24123360216617584, -0.17106197774410248, -0.40495333075523376, -0.0090505136176943779, -0.23404926061630249, 0.014160245656967163, 0.060697443783283234, -0.0071092997677624226, -0.25429463386535645, -0.0075838863849639893, -0.41635766625404358, -0.0064084921032190323, -0.13793621957302094, -0.00025976708275265992, -0.13399751484394073, -0.0036689476110041142, -0.44483274221420288, -0.004711721558123827, -0.20716458559036255, -0.088754042983055115, 0.21984003484249115, 0.0037873685359954834, 0.2177235335111618, 0.32962161302566528, 0.075664669275283813, 0.15960799157619476, 0.008740515448153019, 0.18605898320674896, 0.060306183993816376, 0.010712319985032082, 0.024592766538262367, 0.60756576061248779, 0.020082879811525345, 0.83287376165390015, 0.0010016043670475483, 1.2053008079528809, 0.01477663591504097, 0.59938859939575195, -0.0016706596361473203, 0.48738721013069153, 0.00010083851520903409, 0.49463662505149841, 0.0031984427478164434, 0.28204545378684998, -0.12019747495651245, -0.022841617465019226, 0.17230112850666046, 0.01438729465007782, 0.56690001487731934, 0.64564210176467896, -0.11206728965044022, 
  -0.13410912454128265, 0.0062212017364799976, -0.088767059147357941, 0.05631357803940773, -0.10898473858833313, 0.063168056309223175, -0.091004490852355957, -0.20759481191635132, 0.13472990691661835, -0.008243233896791935, 0.12005039304494858, 0.17213086783885956, -0.15430989861488342, -0.17199282348155975, 0.13624961674213409, 0.17994792759418488, -0.090476483106613159, -0.14600104093551636, -0.058177180588245392, 0.13759687542915344, -0.20622371137142181, -0.2168906033039093, 0.042347535490989685, 0.083677187561988831, -0.20932206511497498, -0.22200486063957214, -0.10566148906946182, 0.013412152417004108, -0.1967976987361908, -0.099796682596206665, -0.24833066761493683, 0.034834414720535278, -0.12297000735998154, -0.19178436696529388, 0.096652664244174957, -0.18708804249763489, 0.066037371754646301, -0.073391251266002655, -0.26525974273681641, -0.11271939426660538, -0.1907067596912384, 0.15316466987133026, 0.076666779816150665, 0.18800544738769531, -0.0033727958798408508, 0.020562835037708282, -0.021766647696495056, 0.074057385325431824, 0.098706945776939392, -0.030974686145782471, 0.074358105659484863, 0.020483816042542458, -0.14453858137130737, 
  -0.011610069312155247, -0.047350373119115829, 0.04368181899189949, -0.28720775246620178, 0.10034528374671936, -0.18083414435386658, 0.15648576617240906, 0.017615947872400284, -0.15185104310512543, -0.021587822586297989, -0.034531630575656891, -0.10935584455728531, -0.057411085814237595, -0.16283723711967468, 0.049947082996368408, -0.092015348374843597, -0.24347551167011261, 0.060974191874265671, -0.24791030585765839, -0.22538630664348602, -0.01223455835133791, -0.20113565027713776, -0.11455361545085907, 0.1779477447271347, -0.1214648112654686, 0.00195698207244277, -0.14829264581203461, 0.1065538302063942, 0.046406734734773636, 0.12716446816921234, -0.11800655722618103, -0.069863364100456238, 0.0049967002123594284, 0.30953052639961243, 0.083785839378833771, -0.027070976793766022, -0.031525641679763794, -0.27188023924827576, -0.10331007838249207, -0.43706706166267395, -0.076205559074878693, -0.01534999068826437, -0.052089732140302658, -0.061431389302015305, 0.083607643842697144, -0.2721564769744873, -0.038439288735389709, -0.1010136604309082, -0.17898614704608917, 0.093522772192955017, -0.092266000807285309, -0.20212724804878235, 0.11671598255634308, 
  0.062820956110954285, -0.0077719083055853844, 0.17833884060382843, -0.1229516789317131, -0.14936025440692902, 0.031021373346447945, -0.30607923865318298, -0.21383711695671082, -0.037418182939291, -0.15564917027950287, 0.22697639465332031, -0.0024505387991666794, -0.091521844267845154, -0.14596626162528992, 0.08863404393196106, -0.094620265066623688, 0.0030491591896861792, -0.0065311817452311516, 0.057640671730041504, -0.18625622987747192, -0.28358769416809082, -0.21165162324905396, 0.21633525192737579, -0.093245029449462891, 0.18014945089817047, -0.20936936140060425, 0.33489528298377991, -0.42238003015518188, 0.13221198320388794, -0.069802075624465942, -0.084226548671722412, -0.48250600695610046, 0.19333827495574951, -0.22806477546691895, -0.10750691592693329, -0.13235709071159363, -0.059344734996557236, -0.066252909600734711, -0.055312015116214752, -0.27911224961280823, 0.034226685762405396, -0.012950843200087547, 0.020278921350836754, -0.38895586133003235, -0.16329820454120636, -0.26943051815032959, -0.21996437013149261, 0.15809820592403412, 0.17691595852375031, 0.22610990703105927, -0.28420174121856689, -0.035356990993022919, -0.60302823781967163, 
};
const TfArray<2, int> tensor_dimension4 = { 2, { 64,53 } };
const ALIGN(8) float tensor_data5[8*64] = { 
  -0.20500332117080688, -0.18911555409431458, -0.096660144627094269, -0.18357715010643005, -0.18848305940628052, 0.14408384263515472, 0.25803643465042114, -0.077151402831077576, -0.044068217277526855, -0.15141208469867706, -0.23419512808322906, -0.02125774510204792, 0.23726201057434082, -0.23887072503566742, -0.12563960254192352, 0.24993133544921875, 0.2462456226348877, -0.023808598518371582, 0.15417172014713287, -0.090283244848251343, -0.26104369759559631, -0.38729605078697205, -0.05817730724811554, 0.24984665215015411, -0.080281659960746765, 0.23407071828842163, -0.2710476815700531, -0.010786598548293114, 0.10213027894496918, 0.20678243041038513, -0.14716167747974396, 0.10588564723730087, 0.16694611310958862, -0.032067000865936279, -0.17369721829891205, -0.22047314047813416, 0.20498086512088776, 0.15045478940010071, 0.17941199243068695, -0.25904589891433716, 0.066971011459827423, -0.0027942226734012365, 0.23068377375602722, -0.080290809273719788, 0.17120520770549774, 0.22049206495285034, 0.10482993721961975, -0.0078279236331582069, 0.24519558250904083, -0.1092212051153183, -0.080225080251693726, -0.21742931008338928, -0.30518564581871033, -0.025702014565467834, 0.22556215524673462, -0.12634523212909698, -0.022215243428945541, 0.16027975082397461, -0.13478876650333405, -0.24818548560142517, -0.54618120193481445, 0.046461593359708786, 0.20863288640975952, 0.11991478502750397, 
  -0.19842077791690826, 0.12382936477661133, 0.22571009397506714, -0.26069307327270508, -0.24857412278652191, 0.21831229329109192, -0.20267999172210693, -0.050350438803434372, 0.13488702476024628, 0.14734771847724915, -0.10041002929210663, 0.25190398097038269, 0.1838604211807251, -0.40422549843788147, 0.10331149399280548, -0.065473571419715881, -0.2429644763469696, -0.024334888905286789, -0.22220334410667419, 0.27220892906188965, -0.12208539992570877, 0.22872993350028992, 0.044926255941390991, -0.23488399386405945, -0.18574663996696472, 0.17159612476825714, 0.065163932740688324, -0.090956628322601318, -0.044289994984865189, 0.2743784487247467, -0.075997918844223022, 0.036007080227136612, 0.16292968392372131, -0.28497514128684998, 0.23056823015213013, -0.026350041851401329, 0.0078465165570378304, 0.21997097134590149, 0.22365190088748932, 0.021100824698805809, 0.16332355141639709, 0.0097997263073921204, -0.095937654376029968, 0.093180000782012939, -0.21102331578731537, 0.14333340525627136, 0.33661988377571106, 0.065381422638893127, 0.24874831736087799, -0.21934300661087036, -0.26329529285430908, -0.21760126948356628, 0.074113130569458008, 0.097111374139785767, 0.19852328300476074, 0.25363996624946594, 0.10455083101987839, 0.22510945796966553, 0.089397773146629333, 0.010308535769581795, 0.042666353285312653, -0.092066057026386261, 0.13733823597431183, 0.077829509973526001, 
  -0.24872475862503052, 0.1031481996178627, 0.16223292052745819, -0.035408638417720795, -0.2258886992931366, 0.15490123629570007, -0.16802331805229187, -0.0088175833225250244, 0.066763930022716522, -0.080407880246639252, 0.21967089176177979, -0.20083925127983093, -0.19978174567222595, -0.064706176519393921, -0.27319282293319702, 0.088278919458389282, 0.22551852464675903, 0.26328366994857788, -0.38843265175819397, 0.052299350500106812, -0.072896264493465424, 0.063277281820774078, 0.25064980983734131, 0.079162299633026123, 0.058831512928009033, 0.20559847354888916, -0.14474348723888397, -0.16900676488876343, -0.22032493352890015, 0.24593505263328552, 0.15346384048461914, -0.06862466037273407, -0.07661263644695282, -0.028313100337982178, -0.22507347166538239, -0.012622009962797165, -0.055399186909198761, -0.033767074346542358, -0.24356867372989655, -0.29581508040428162, -0.00011256366997258738, -0.10624229162931442, 0.042916934937238693, 0.03992559015750885, 0.091299988329410553, 0.22128970921039581, -0.0014158718986436725, -0.11286911368370056, 0.16068954765796661, 0.13542097806930542, 0.1747596263885498, 0.27224364876747131, 0.24422697722911835, 0.058034081012010574, 0.28130742907524109, 0.17136625945568085, 0.11287811398506165, -0.18351979553699493, 0.21479032933712006, -0.12942862510681152, -0.32879149913787842, -0.21761168539524078, -0.14800508320331573, 0.17370085418224335, 
  -0.2483009546995163, 0.046215228736400604, 0.070940397679805756, -0.17112019658088684, 0.01039409451186657, -0.067670613527297974, 0.02461165189743042, 0.15829844772815704, -0.16256396472454071, -0.11433916538953781, 0.24354648590087891, -0.27275997400283813, -0.096722424030303955, 0.10464033484458923, 0.25902318954467773, 0.0050582587718963623, -0.096877127885818481, -0.10507874935865402, -0.10754136741161346, 0.21843284368515015, 0.039654798805713654, 0.17957159876823425, 0.25866931676864624, -0.1479843407869339, 0.19491696357727051, -0.15679009258747101, 0.2256968766450882, -0.056697666645050049, 0.19577448070049286, 0.022070704028010368, -0.039959918707609177, 0.21472066640853882, 0.0062142610549926758, 0.1041267141699791, -0.27368044853210449, 0.056704014539718628, 0.10611443221569061, -0.27141860127449036, 0.030970903113484383, 0.19902734458446503, -0.14741356670856476, 0.21139027178287506, 0.16634003818035126, -0.24692898988723755, 0.1869707852602005, 0.20749831199645996, -0.23157590627670288, 0.062649987637996674, -0.023909088224172592, -0.098722010850906372, -0.23797288537025452, 0.010475260205566883, -0.17685921490192413, -0.17269881069660187, 0.24996426701545715, 0.1357150673866272, 0.20252998173236847, 0.041098743677139282, -0.10597420483827591, 0.2023632824420929, -0.030347896739840508, -0.0066302036866545677, 0.22611543536186218, -0.012131680734455585, 
  -0.017187083140015602, 0.18783795833587646, 0.038077529519796371, 0.047865007072687149, 0.22968001663684845, -0.23624996840953827, -0.0046059489250183105, -0.072754479944705963, 0.094472765922546387, 0.080192305147647858, -0.16438712179660797, 0.19628293812274933, -0.087946414947509766, -0.070968650281429291, 0.16165120899677277, -0.2393457442522049, -0.26572197675704956, 0.0014412319287657738, -0.21110925078392029, -0.024004906415939331, 0.022882755845785141, 0.22299313545227051, -0.094937905669212341, 0.017499590292572975, -0.093068584799766541, 0.36090937256813049, -0.19142411649227142, -0.27694973349571228, 0.088861197233200073, 0.19684012234210968, 0.18413841724395752, 0.20755751430988312, 0.25264191627502441, -0.023088589310646057, -0.19354873895645142, 0.055786691606044769, 0.024542355909943581, -0.082693286240100861, 0.24590222537517548, -0.035745024681091309, -0.11472825706005096, -0.091327302157878876, 0.2358718067407608, 0.10502950847148895, -0.18185535073280334, 0.017130669206380844, 0.26028859615325928, 0.20001943409442902, -0.059004921466112137, -0.21100009977817535, 0.11693599820137024, 0.21676772832870483, -0.1869204193353653, 0.17608025670051575, -0.017646942287683487, 0.16675446927547455, -0.1789192408323288, 0.12414658069610596, -0.01087543647736311, 0.16318079829216003, -0.42811203002929688, -0.06335081160068512, -0.1218588724732399, 0.12378078699111938, 
  0.13358193635940552, -0.10195369273424149, -0.15501898527145386, -0.001894773100502789, -0.29326552152633667, -0.23589833080768585, 0.12712383270263672, 0.19367101788520813, 0.12750054895877838, -0.24891607463359833, 0.26193034648895264, -0.25638937950134277, 0.044315576553344727, -0.11615166813135147, 0.25458550453186035, -0.21322013437747955, -0.17835244536399841, -0.21369448304176331, -0.28300932049751282, -0.10669496655464172, -0.25011000037193298, 0.033935461193323135, 0.13400527834892273, -0.11379911750555038, 0.12312477827072144, 0.12058686465024948, 0.23303323984146118, -0.010428833775222301, -0.20612055063247681, -0.24720422923564911, -0.17953900992870331, -0.21618923544883728, -0.082854285836219788, -0.14486193656921387, -0.0044769793748855591, -0.27053812146186829, 0.091671846807003021, -0.17319664359092712, -0.0004011690616607666, 0.11213303357362747, 0.13220706582069397, -0.14147321879863739, -0.032914496958255768, 0.059526141732931137, -0.21089038252830505, 0.18465985357761383, 0.089985348284244537, -0.14632007479667664, -0.2325209379196167, 0.16963088512420654, 0.17875581979751587, -0.10576433688402176, 0.059886392205953598, 0.1638169139623642, 0.016875896602869034, -0.0087998742237687111, -0.28963512182235718, 0.048675268888473511, -0.17859016358852386, -0.018265176564455032, -0.064813226461410522, 0.21786580979824066, 0.19778089225292206, 0.13994349539279938, 
  0.1231384202837944, -0.023825636133551598, 0.048824433237314224, -0.022786522284150124, 0.14879915118217468, 0.064669020473957062, 0.23848652839660645, 0.11363290995359421, 0.016263430938124657, -0.30344784259796143, 0.11785778403282166, 0.14930364489555359, -0.16231809556484222, -0.52702033519744873, 0.20172455906867981, -0.2778770923614502, 0.1007244884967804, 0.079044103622436523, 0.048717223107814789, 0.13210940361022949, 0.10786676406860352, -0.10467106848955154, -0.24592003226280212, -0.0033339965157210827, 0.01011967658996582, 0.2270832359790802, 0.26747959852218628, 0.047016527503728867, -0.084493458271026611, 0.086094141006469727, -0.28486132621765137, 0.21910823881626129, -0.14594690501689911, -0.05095682293176651, 0.20853263139724731, 0.20661883056163788, 0.18880316615104675, 0.16140733659267426, -0.10542728751897812, -0.21663163602352142, 0.14771239459514618, 0.015952717512845993, -0.10311321914196014, 0.014179212972521782, -0.033197470009326935, -0.025128418579697609, 0.21818840503692627, 0.11894921958446503, 0.02801281213760376, -0.23542819917201996, 0.039427518844604492, -0.13199412822723389, 0.012020490132272243, 0.10536566376686096, -0.22291821241378784, -0.015085533261299133, -0.28481492400169373, 0.076311111450195312, 0.041185323148965836, -0.11270744353532791, -0.24904343485832214, 0.14052186906337738, -0.052313037216663361, -0.025999711826443672, 
  -0.18242979049682617, 0.10567537695169449, -0.17161831259727478, 0.052219480276107788, 0.17857606709003448, -0.18871663510799408, -0.054149925708770752, 0.17646923661231995, -0.18342466652393341, -0.19734838604927063, 0.24026644229888916, -0.36411121487617493, 0.21331441402435303, -0.29365986585617065, 0.083138257265090942, -0.049284711480140686, 0.12845593690872192, -0.065224707126617432, -0.3535631000995636, 0.060093283653259277, -0.15937277674674988, -0.049734074622392654, 0.072460323572158813, -0.25118985772132874, 0.25885504484176636, 0.14212906360626221, 0.1570400595664978, 0.091991208493709564, 0.15486167371273041, 0.19279846549034119, -0.28325903415679932, -0.012450642883777618, -0.25874510407447815, 0.1560407429933548, -0.24825119972229004, -0.2083972841501236, -0.24132135510444641, 0.10810887813568115, 0.02807772159576416, -0.24473653733730316, 0.097035735845565796, -0.19517503678798676, -0.0058739199303090572, -0.011034251190721989, -0.1440105140209198, -0.20620507001876831, 0.062984593212604523, 0.046888075768947601, 0.11914300918579102, -0.0055120885372161865, 0.033934623003005981, -0.021624820306897163, -0.24761198461055756, 0.048540417104959488, 0.12851637601852417, -0.27687498927116394, 0.19833666086196899, -0.15477055311203003, 0.19945456087589264, -0.12075209617614746, -0.090491801500320435, 0.041158270090818405, -0.13399696350097656, -0.11343465000391006, 
};
const TfArray<2, int> tensor_dimension5 = { 2, { 8,64 } };
const ALIGN(8) float tensor_data6[7*8] = { 
  -0.39379376173019409, -0.25077074766159058, 0.46652376651763916, -0.0010869313264265656, 0.027972608804702759, -0.60638988018035889, 0.47230839729309082, -0.50402295589447021, 
  0.16341590881347656, 0.41767996549606323, -0.34128805994987488, 0.30330777168273926, -0.016067694872617722, 0.00044083301327191293, -0.35732939839363098, -0.64359855651855469, 
  -0.67951148748397827, 0.2637958824634552, 0.075140796601772308, 0.0012205386301502585, 0.22460600733757019, 0.50864648818969727, -0.64617377519607544, 0.23536421358585358, 
  -0.66229617595672607, 0.035427931696176529, -0.72560006380081177, -0.44723379611968994, -2.5061423778533936, -0.57711964845657349, -0.56074666976928711, 0.50882488489151001, 
  -0.068140141665935516, 0.34190601110458374, -0.078049875795841217, 0.26491600275039673, -0.14815427362918854, 0.46388530731201172, -0.050318636000156403, 0.48942959308624268, 
  0.066313497722148895, 0.32337665557861328, -0.12815679609775543, 0.14237631857395172, 0.061568237841129303, 0.28491854667663574, -0.070180483162403107, -0.32268339395523071, 
  -1.2772974967956543, 0.30410587787628174, -0.65062981843948364, -0.064310424029827118, 0.33091568946838379, -0.52616602182388306, -0.52101022005081177, 0.00304983532987535, 
};
const TfArray<2, int> tensor_dimension6 = { 2, { 7,8 } };
const TfArray<2, int> tensor_dimension7 = { 2, { 1,64 } };
const TfArray<2, int> tensor_dimension8 = { 2, { 1,8 } };
const TfArray<2, int> tensor_dimension9 = { 2, { 1,7 } };
const TfArray<2, int> tensor_dimension10 = { 2, { 1,7 } };
const TfLiteFullyConnectedParams opdata0 = { kTfLiteActRelu, kTfLiteFullyConnectedWeightsFormatDefault, false, false };
const TfArray<3, int> inputs0 = { 3, { 0,4,1 } };
const TfArray<1, int> outputs0 = { 1, { 7 } };
const TfLiteFullyConnectedParams opdata1 = { kTfLiteActRelu, kTfLiteFullyConnectedWeightsFormatDefault, false, false };
const TfArray<3, int> inputs1 = { 3, { 7,5,2 } };
const TfArray<1, int> outputs1 = { 1, { 8 } };
const TfLiteFullyConnectedParams opdata2 = { kTfLiteActNone, kTfLiteFullyConnectedWeightsFormatDefault, false, false };
const TfArray<3, int> inputs2 = { 3, { 8,6,3 } };
const TfArray<1, int> outputs2 = { 1, { 9 } };
const TfLiteSoftmaxParams opdata3 = { 1 };
const TfArray<1, int> inputs3 = { 1, { 9 } };
const TfArray<1, int> outputs3 = { 1, { 10 } };
const TensorInfo_t tensorData[] = {
  { kTfLiteArenaRw, tensor_arena + 256, (TfLiteIntArray*)&tensor_dimension0, 212, },
  { kTfLiteMmapRo, (void*)tensor_data1, (TfLiteIntArray*)&tensor_dimension1, 256, },
  { kTfLiteMmapRo, (void*)tensor_data2, (TfLiteIntArray*)&tensor_dimension2, 32, },
  { kTfLiteMmapRo, (void*)tensor_data3, (TfLiteIntArray*)&tensor_dimension3, 28, },
  { kTfLiteMmapRo, (void*)tensor_data4, (TfLiteIntArray*)&tensor_dimension4, 13568, },
  { kTfLiteMmapRo, (void*)tensor_data5, (TfLiteIntArray*)&tensor_dimension5, 2048, },
  { kTfLiteMmapRo, (void*)tensor_data6, (TfLiteIntArray*)&tensor_dimension6, 224, },
  { kTfLiteArenaRw, tensor_arena + 0, (TfLiteIntArray*)&tensor_dimension7, 256, },
  { kTfLiteArenaRw, tensor_arena + 256, (TfLiteIntArray*)&tensor_dimension8, 32, },
  { kTfLiteArenaRw, tensor_arena + 32, (TfLiteIntArray*)&tensor_dimension9, 28, },
  { kTfLiteArenaRw, tensor_arena + 0, (TfLiteIntArray*)&tensor_dimension10, 28, },
};const NodeInfo_t nodeData[] = {
  { (TfLiteIntArray*)&inputs0, (TfLiteIntArray*)&outputs0, const_cast<void*>(static_cast<const void*>(&opdata0)), OP_FULLY_CONNECTED, },
  { (TfLiteIntArray*)&inputs1, (TfLiteIntArray*)&outputs1, const_cast<void*>(static_cast<const void*>(&opdata1)), OP_FULLY_CONNECTED, },
  { (TfLiteIntArray*)&inputs2, (TfLiteIntArray*)&outputs2, const_cast<void*>(static_cast<const void*>(&opdata2)), OP_FULLY_CONNECTED, },
  { (TfLiteIntArray*)&inputs3, (TfLiteIntArray*)&outputs3, const_cast<void*>(static_cast<const void*>(&opdata3)), OP_SOFTMAX, },
};
static std::vector<void*> overflow_buffers;
static void * AllocatePersistentBuffer(struct TfLiteContext* ctx,
                                       size_t bytes) {
  void *ptr;
  if (current_location - bytes < tensor_boundary) {
    // OK, this will look super weird, but.... we have CMSIS-NN buffers which
    // we cannot calculate beforehand easily.
    ptr = ei_calloc(bytes, 1);
    if (ptr == NULL) {
      printf("ERR: Failed to allocate persistent buffer of size %d\n", (int)bytes);
      return NULL;
    }
    overflow_buffers.push_back(ptr);
    return ptr;
  }

  current_location -= bytes;

  ptr = current_location;
  memset(ptr, 0, bytes);

  return ptr;
}
typedef struct {
  size_t bytes;
  void *ptr;
} scratch_buffer_t;
static std::vector<scratch_buffer_t> scratch_buffers;

static TfLiteStatus RequestScratchBufferInArena(struct TfLiteContext* ctx, size_t bytes,
                                                int* buffer_idx) {
  scratch_buffer_t b;
  b.bytes = bytes;

  b.ptr = AllocatePersistentBuffer(ctx, b.bytes);
  if (!b.ptr) {
    return kTfLiteError;
  }

  scratch_buffers.push_back(b);

  *buffer_idx = scratch_buffers.size() - 1;

  return kTfLiteOk;
}

static void* GetScratchBuffer(struct TfLiteContext* ctx, int buffer_idx) {
  if (buffer_idx > static_cast<int>(scratch_buffers.size()) - 1) {
    return NULL;
  }
  return scratch_buffers[buffer_idx].ptr;
}

static TfLiteTensor* GetTensor(const struct TfLiteContext* context,
                               int tensor_idx) {
  return &tflTensors[tensor_idx];
}

static TfLiteEvalTensor* GetEvalTensor(const struct TfLiteContext* context,
                                       int tensor_idx) {
  return &tflEvalTensors[tensor_idx];
}

} // namespace

TfLiteStatus trained_model_init( void*(*alloc_fnc)(size_t,size_t) ) {
#ifdef EI_CLASSIFIER_ALLOCATION_HEAP
  tensor_arena = (uint8_t*) alloc_fnc(16, kTensorArenaSize);
  if (!tensor_arena) {
    printf("ERR: failed to allocate tensor arena\n");
    return kTfLiteError;
  }
#else
  memset(tensor_arena, 0, kTensorArenaSize);
#endif
  tensor_boundary = tensor_arena;
  current_location = tensor_arena + kTensorArenaSize;
  ctx.AllocatePersistentBuffer = &AllocatePersistentBuffer;
  ctx.RequestScratchBufferInArena = &RequestScratchBufferInArena;
  ctx.GetScratchBuffer = &GetScratchBuffer;
  ctx.GetTensor = &GetTensor;
  ctx.GetEvalTensor = &GetEvalTensor;
  ctx.tensors = tflTensors;
  ctx.tensors_size = 11;
  for(size_t i = 0; i < 11; ++i) {
    tflTensors[i].type = kTfLiteFloat32;
    tflEvalTensors[i].type = kTfLiteFloat32;
    tflTensors[i].is_variable = 0;

#if defined(EI_CLASSIFIER_ALLOCATION_HEAP)
    tflTensors[i].allocation_type = tensorData[i].allocation_type;
#else
    tflTensors[i].allocation_type = (tensor_arena <= tensorData[i].data && tensorData[i].data < tensor_arena + kTensorArenaSize) ? kTfLiteArenaRw : kTfLiteMmapRo;
#endif
    tflTensors[i].bytes = tensorData[i].bytes;
    tflTensors[i].dims = tensorData[i].dims;
    tflEvalTensors[i].dims = tensorData[i].dims;

#if defined(EI_CLASSIFIER_ALLOCATION_HEAP)
    if(tflTensors[i].allocation_type == kTfLiteArenaRw){
      uint8_t* start = (uint8_t*) ((uintptr_t)tensorData[i].data + (uintptr_t) tensor_arena);

     tflTensors[i].data.data =  start;
     tflEvalTensors[i].data.data =  start;
    }
    else{
       tflTensors[i].data.data = tensorData[i].data;
       tflEvalTensors[i].data.data = tensorData[i].data;
    }
#else
    tflTensors[i].data.data = tensorData[i].data;
    tflEvalTensors[i].data.data = tensorData[i].data;
#endif // EI_CLASSIFIER_ALLOCATION_HEAP
    tflTensors[i].quantization.type = kTfLiteNoQuantization;
    if (tflTensors[i].allocation_type == kTfLiteArenaRw) {
      auto data_end_ptr = (uint8_t*)tflTensors[i].data.data + tensorData[i].bytes;
      if (data_end_ptr > tensor_boundary) {
        tensor_boundary = data_end_ptr;
      }
    }
  }
  if (tensor_boundary > current_location /* end of arena size */) {
    printf("ERR: tensor arena is too small, does not fit model - even without scratch buffers\n");
    return kTfLiteError;
  }
  registrations[OP_FULLY_CONNECTED] = Register_FULLY_CONNECTED();
  registrations[OP_SOFTMAX] = Register_SOFTMAX();

  for(size_t i = 0; i < 4; ++i) {
    tflNodes[i].inputs = nodeData[i].inputs;
    tflNodes[i].outputs = nodeData[i].outputs;
    tflNodes[i].builtin_data = nodeData[i].builtin_data;
    tflNodes[i].custom_initial_data = nullptr;
    tflNodes[i].custom_initial_data_size = 0;
    if (registrations[nodeData[i].used_op_index].init) {
      tflNodes[i].user_data = registrations[nodeData[i].used_op_index].init(&ctx, (const char*)tflNodes[i].builtin_data, 0);
    }
  }
  for(size_t i = 0; i < 4; ++i) {
    if (registrations[nodeData[i].used_op_index].prepare) {
